svm_type c_svc
kernel_type rbf
gamma 8
nr_class 2
total_sv 13243
rho -35.5134
label 1 -1
probA -0.165186
probB 0.350112
nr_sv 5815 7428
SV
32768 1:0.8384569 2:0.15966387 3:-0.54538536 
32768 1:0.89873418 2:-0.0084033613 3:-0.62729613 
32768 1:0.78179626 2:0.058823529 3:-0.61231056 
32768 1:0.89029536 2:-0.4789916 3:-0.7019216 
32768 1:0.79746835 2:0.17647059 3:-0.46112791 
32768 1:0.79746835 2:0.17647059 3:-0.46112791 
32768 1:0.81675708 2:-0.058823529 3:-0.47261534 
32768 1:0.87944545 2:-0.2605042 3:-0.58220913 
32768 1:0.78179626 2:0.41176471 3:-0.46952529 
32768 1:0.82278481 2:-0.042016807 3:-0.33260603 
32768 1:0.83966245 2:-0.46218487 3:-0.5507245 
32768 1:0.79505726 2:0.24369748 3:-0.34762722 
32768 1:0.84689572 2:-0.27731092 3:-0.38283374 
32768 1:0.83484027 2:-0.34453782 3:-0.45940859 
32768 1:0.80470163 2:0.025210084 3:-0.23395571 
20692.40157075087 1:0.81796263 2:0.34453782 3:-0.1271029 
32768 1:0.83001808 2:0.12605042 3:-0.11998508 
32768 1:0.81796263 2:0.34453782 3:-0.1271029 
32768 1:0.80349608 2:-0.24369748 3:-0.1952782 
32768 1:0.83001808 2:0.12605042 3:-0.11998508 
32768 1:0.79626281 2:0.41176471 3:-0.11300024 
28505.55698675787 1:0.80229054 2:0.41176471 3:-0.018195976 
32768 1:0.81555154 2:-0.12605042 3:-0.16216863 
32768 1:0.80229054 2:0.22689076 3:0.066597549 
32768 1:0.79144063 2:-0.4789916 3:-0.14344945 
32768 1:0.81555154 2:0.14285714 3:0.083405767 
32768 1:0.81555154 2:-0.41176471 3:-0.020035971 
32768 1:0.81434599 2:-0.31092437 3:-0.0086015429 
32768 1:0.81555154 2:-0.42857143 3:0.010979418 
32768 1:0.80590717 2:-0.27731092 3:0.045670224 
6490.480177025436 1:0.50813743 2:0.37815126 3:-0.89488412 
32768 1:0.76130199 2:-0.025210084 3:-0.89325222 
32768 1:0.76130199 2:-0.025210084 3:-0.89325222 
20021.68678389561 1:0.56359253 2:0.39495798 3:-0.88822318 
19901.72757803587 1:0.43821579 2:0.42857143 3:-0.90113256 
32768 1:0.76130199 2:-0.025210084 3:-0.89325222 
32768 1:0.76130199 2:-0.025210084 3:-0.89325222 
32768 1:0.76130199 2:-0.025210084 3:-0.89325222 
32768 1:0.72272453 2:-0.27731092 3:-0.78946694 
32768 1:0.72272453 2:-0.27731092 3:-0.78946694 
32768 1:0.72272453 2:-0.27731092 3:-0.78946694 
14236.16578285278 1:0.60699216 2:0.025210084 3:-0.78893401 
32768 1:0.72272453 2:-0.27731092 3:-0.78946694 
9717.449221228442 1:0.52983725 2:0.15966387 3:-0.78497623 
32768 1:0.72272453 2:-0.27731092 3:-0.78946694 
32768 1:0.46955998 2:0.19327731 3:-0.77615701 
32768 1:0.69981917 2:-0.34453782 3:-0.69778793 
32768 1:0.69981917 2:-0.34453782 3:-0.69778793 
32768 1:0.69981917 2:-0.34453782 3:-0.69778793 
32768 1:0.69981917 2:-0.34453782 3:-0.69778793 
32768 1:0.69981917 2:-0.34453782 3:-0.69778793 
32768 1:0.69981917 2:-0.34453782 3:-0.69778793 
32768 1:0.69981917 2:-0.34453782 3:-0.69778793 
10150.60470833927 1:0.59975889 2:0.042016807 3:-0.69376954 
32768 1:0.62025316 2:-0.4789916 3:-0.61356255 
32768 1:0.70946353 2:-0.51260504 3:-0.62287953 
32768 1:0.70946353 2:-0.51260504 3:-0.62287953 
32768 1:0.62025316 2:-0.4789916 3:-0.61356255 
32768 1:0.62025316 2:-0.4789916 3:-0.61356255 
32768 1:0.70946353 2:-0.51260504 3:-0.62287953 
32768 1:0.64195298 2:-0.57983193 3:-0.54488393 
32768 1:0.64195298 2:-0.57983193 3:-0.54488393 
32768 1:0.64195298 2:-0.57983193 3:-0.54488393 
32768 1:0.64195298 2:-0.57983193 3:-0.54488393 
32768 1:0.64195298 2:-0.57983193 3:-0.54488393 
32768 1:0.64195298 2:-0.57983193 3:-0.54488393 
32768 1:0.64195298 2:-0.57983193 3:-0.54488393 
14714.48365704052 1:0.4225437 2:0.29411765 3:-0.44283582 
10240.44502698689 1:0.63230862 2:-0.54621849 3:-0.46083313 
32768 1:0.63230862 2:-0.54621849 3:-0.46083313 
32768 1:0.63230862 2:-0.54621849 3:-0.46083313 
3633.58894677477 1:0.5177818 2:0.15966387 3:-0.3488305 
11455.68764302108 1:0.47076552 2:0.22689076 3:-0.35155045 
12051.99052255648 1:0.43942134 2:0.2605042 3:-0.36615752 
1952.665785723927 1:0.49728752 2:0.19327731 3:-0.27951927 
32768 1:0.50934298 2:0.092436975 3:-0.22034763 
4103.11495307407 1:0.52501507 2:-0.17647059 3:-0.1172316 
7265.574345092031 1:0.54189271 2:0.51260504 3:-0.83700171 
1588.163816997334 1:0.47920434 2:0.51260504 3:-0.832797 
4957.744803201907 1:0.50934298 2:0.058823529 3:-0.71101969 
7832.657433538576 1:0.49849307 2:0.17647059 3:-0.71368206 
12789.55567982731 1:0.51657625 2:0.0084033613 3:-0.59826837 
2528.320888835214 1:0.53586498 2:0.19327731 3:-0.48208113 
32768 1:0.62989753 2:-0.83193277 3:-0.45828442 
819.3913297303783 1:0.53948162 2:0.1092437 3:-0.40281673 
4819.894360011855 1:0.50572634 2:-0.025210084 3:-0.40812184 
20609.68040731361 1:0.52260398 2:-0.058823529 3:-0.38838689 
1329.891102213248 1:0.52622061 2:-0.042016807 3:-0.3190477 
32768 1:0.64798071 2:-0.96638655 3:-0.29197168 
24559.79780905409 1:0.55033153 2:-0.2605042 3:0.088254047 
32768 1:0.71669681 2:-0.41176471 3:-0.90241718 
32768 1:0.91199518 2:-0.36134454 3:-0.87346502 
1851.259429777143 1:0.60337553 2:0.56302521 3:-0.8689755 
32768 1:0.60940325 2:-0.0084033613 3:-0.86698089 
14962.75056680756 1:0.54550934 2:0.14285714 3:-0.74745932 
32768 1:0.76371308 2:-0.31092437 3:-0.66112638 
32768 1:0.76371308 2:-0.31092437 3:-0.66112638 
32768 1:0.76371308 2:-0.31092437 3:-0.66112638 
19775.39847854066 1:0.58167571 2:0.4789916 3:-0.74745694 
32768 1:0.68294153 2:-0.4789916 3:-0.86300387 
26430.50521335825 1:0.53586498 2:-0.24369748 3:-0.64932533 
5241.913971730287 1:0.52863171 2:0.042016807 3:-0.65262388 
32768 1:0.64315853 2:-0.44537815 3:-0.67802896 
32768 1:0.7034358 2:-0.32773109 3:-0.53113046 
32768 1:0.68294153 2:-0.4789916 3:-0.86300387 
32768 1:0.67811935 2:-0.32773109 3:-0.41239202 
3824.436718318581 1:0.60458107 2:0.51260504 3:-0.57103001 
32768 1:0.6925859 2:-0.61344538 3:-0.77694423 
32768 1:0.54671489 2:-0.2605042 3:-0.55029825 
32768 1:0.6925859 2:-0.61344538 3:-0.77694423 
22197.98151863088 1:0.60337553 2:0.44537815 3:-0.55460908 
2666.901986595706 1:0.5310428 2:0.14285714 3:-0.55309579 
32768 1:0.62748644 2:-0.37815126 3:-0.58133435 
32768 1:0.6925859 2:-0.61344538 3:-0.77694423 
32768 1:0.64556962 2:-0.37815126 3:-0.49362414 
32768 1:0.71549126 2:-0.54621849 3:-0.54832692 
13129.38005577236 1:0.55997589 2:-0.2605042 3:-0.47656215 
32768 1:0.69861362 2:-0.54621849 3:-0.73700231 
32768 1:0.69861362 2:-0.54621849 3:-0.73700231 
32768 1:0.64556962 2:-0.37815126 3:-0.49362414 
32768 1:0.68776371 2:-0.44537815 3:-0.64597856 
32768 1:0.56359253 2:-0.2605042 3:-0.38976223 
32768 1:0.58770344 2:0.36134454 3:-0.39657737 
32768 1:0.60096444 2:-0.31092437 3:-0.40575883 
32768 1:0.61663653 2:-0.34453782 3:-0.39242377 
32768 1:0.69861362 2:-0.57983193 3:-0.68280644 
32768 1:0.69499699 2:-0.61344538 3:-0.64803679 
32768 1:0.61663653 2:-0.34453782 3:-0.39242377 
32768 1:0.61784207 2:-0.31092437 3:-0.33122038 
32768 1:0.7034358 2:-0.54621849 3:-0.65184943 
32768 1:0.7034358 2:-0.54621849 3:-0.65184943 
32768 1:0.69138035 2:-0.57983193 3:-0.61555118 
32768 1:0.7034358 2:-0.54621849 3:-0.65184943 
32768 1:0.7034358 2:-0.54621849 3:-0.65184943 
32768 1:0.61784207 2:-0.31092437 3:-0.33122038 
32768 1:0.64556962 2:-0.49579832 3:-0.48167734 
32768 1:0.69499699 2:-0.54621849 3:-0.5873372 
32768 1:0.69499699 2:-0.54621849 3:-0.5873372 
32768 1:0.64556962 2:-0.49579832 3:-0.48167734 
32768 1:0.67088608 2:-0.59663866 3:-0.55527633 
32768 1:0.6769138 2:-0.56302521 3:-0.52901987 
32768 1:0.6769138 2:-0.56302521 3:-0.52901987 
32768 1:0.6769138 2:-0.56302521 3:-0.52901987 
32768 1:0.66003617 2:-0.59663866 3:-0.49721736 
32768 1:0.66606389 2:-0.56302521 3:-0.47282457 
12158.65174398437 1:0.63833635 2:-0.44537815 3:-0.37246607 
32768 1:0.66606389 2:-0.56302521 3:-0.47282457 
32768 1:0.64074744 2:-0.61344538 3:-0.4292268 
32768 1:0.66606389 2:-0.56302521 3:-0.47282457 
32768 1:0.63833635 2:-0.44537815 3:-0.37246607 
32768 1:0.66606389 2:-0.56302521 3:-0.47282457 
32768 1:0.64798071 2:-0.57983193 3:-0.40620631 
32768 1:0.63954189 2:-0.57983193 3:-0.37836439 
31838.69588333295 1:0.55515371 2:0.14285714 3:-0.10771938 
32768 1:0.64798071 2:-0.57983193 3:-0.40620631 
32768 1:0.64798071 2:-0.57983193 3:-0.40620631 
32768 1:0.64798071 2:-0.57983193 3:-0.40620631 
32768 1:0.64798071 2:-0.57983193 3:-0.40620631 
32768 1:0.64677517 2:-0.57983193 3:-0.35641783 
32768 1:0.64677517 2:-0.57983193 3:-0.35641783 
32768 1:0.64677517 2:-0.57983193 3:-0.35641783 
32768 1:0.64677517 2:-0.57983193 3:-0.35641783 
32768 1:0.64677517 2:-0.57983193 3:-0.35641783 
32768 1:0.64195298 2:-0.57983193 3:-0.30372239 
32768 1:0.60699216 2:-0.52941176 3:-0.24414874 
6173.17328440118 1:0.56600362 2:-0.29411765 3:0.067138951 
32768 1:0.64195298 2:-0.57983193 3:-0.30372239 
32768 1:0.56600362 2:-0.27731092 3:0.11394176 
32768 1:0.58529234 2:-0.37815126 3:0.10006007 
32768 1:0.61301989 2:-0.058823529 3:-0.80163937 
32768 1:0.72393008 2:0.37815126 3:-0.80512696 
6466.59748930347 1:0.69138035 2:0.39495798 3:-0.78041954 
32768 1:0.61663653 2:-0.042016807 3:-0.66706183 
32768 1:0.67450271 2:0.19327731 3:-0.61866878 
32768 1:0.77697408 2:0.52941176 3:-0.63490692 
32768 1:0.70464135 2:0.27731092 3:-0.49960554 
32768 1:0.66124171 2:0.21008403 3:-0.54316201 
22132.2944577662 1:0.67450271 2:0.36134454 3:-0.57857512 
32768 1:0.70464135 2:0.27731092 3:-0.49960554 
32768 1:0.70464135 2:0.27731092 3:-0.49960554 
32768 1:0.68776371 2:0.19327731 3:-0.39281512 
32768 1:0.75286317 2:-0.0084033613 3:-0.45805916 
32768 1:0.68776371 2:0.19327731 3:-0.39281512 
32768 1:0.72151899 2:-0.27731092 3:-0.49129897 
32768 1:0.73839662 2:-0.29411765 3:-0.50544491 
32768 1:0.67811935 2:0.21008403 3:-0.35477398 
32768 1:0.67811935 2:0.21008403 3:-0.35477398 
3706.311356413255 1:0.64315853 2:0.2605042 3:-0.34689495 
32768 1:0.67570826 2:0.15966387 3:-0.35110396 
32768 1:0.69740808 2:0.075630252 3:-0.38461678 
32768 1:0.67570826 2:0.15966387 3:-0.35110396 
32768 1:0.67570826 2:0.15966387 3:-0.35110396 
4402.516838547722 1:0.64195298 2:0.32773109 3:-0.26457789 
32768 1:0.66968053 2:0.15966387 3:-0.27050937 
32768 1:0.68414708 2:-0.44537815 3:-0.28201785 
32768 1:0.66968053 2:0.15966387 3:-0.27050937 
32768 1:0.66968053 2:0.15966387 3:-0.27050937 
32768 1:0.6503918 2:-0.41176471 3:-0.30807686 
32768 1:0.67570826 2:0.12605042 3:-0.17867064 
32768 1:0.69499699 2:-0.42857143 3:-0.1766051 
32768 1:0.67570826 2:0.12605042 3:-0.17867064 
32768 1:0.65883062 2:0.1092437 3:-0.1834178 
32768 1:0.6769138 2:0.14285714 3:-0.19473791 
32768 1:0.6769138 2:0.17647059 3:-0.2334485 
32768 1:0.67570826 2:0.12605042 3:-0.17867064 
2177.240122595694 1:0.66968053 2:0.17647059 3:-0.19509544 
347.004371792481 1:0.64195298 2:0.32773109 3:-0.18361343 
32768 1:0.7058469 2:-0.46218487 3:-0.071837058 
32768 1:0.6769138 2:0.14285714 3:-0.12469067 
32768 1:0.66847498 2:0.12605042 3:-0.11460233 
32768 1:0.6769138 2:0.14285714 3:-0.12469067 
32768 1:0.68414708 2:-0.44537815 3:0.0068502475 
32768 1:0.66968053 2:-0.46218487 3:-0.017998345 
32768 1:0.6901748 2:0.14285714 3:-0.071896282 
32768 1:0.67450271 2:0.1092437 3:-0.049789043 
24829.7740376985 1:0.66485835 2:0.1092437 3:-0.044366171 
32768 1:0.66485835 2:0.1092437 3:-0.044366171 
32768 1:0.68053044 2:0.12605042 3:-0.043489836 
5962.69194200275 1:0.67088608 2:0.12605042 3:0.022443793 
32768 1:0.68414708 2:0.1092437 3:0.027356938 
32768 1:0.67450271 2:0.12605042 3:0.010589396 
25864.2860870214 1:0.67088608 2:0.1092437 3:0.015913939 
32768 1:0.67088608 2:0.1092437 3:0.015913939 
6797.403074356659 1:0.66968053 2:0.1092437 3:0.088665357 
32768 1:0.67811935 2:0.1092437 3:0.077499 
32768 1:0.67088608 2:0.1092437 3:0.072428078 
32768 1:0.67088608 2:0.1092437 3:0.072428078 
32768 1:0.67450271 2:0.1092437 3:0.088781907 
32768 1:0.67450271 2:0.1092437 3:0.088781907 
32768 1:0.67088608 2:0.1092437 3:0.072428078 
32768 1:0.68173599 2:-0.49579832 3:0.21755243 
32768 1:0.66606389 2:-0.52941176 3:0.27568711 
32768 1:0.67570826 2:-0.42857143 3:0.31092968 
32768 1:0.76491863 2:-0.24369748 3:-0.89631701 
32768 1:0.75527426 2:0.52941176 3:-0.89948274 
32768 1:0.68776371 2:0.36134454 3:-0.91389964 
32768 1:0.76491863 2:-0.24369748 3:-0.89631701 
32768 1:0.76491863 2:-0.24369748 3:-0.89631701 
32768 1:0.68776371 2:0.36134454 3:-0.91389964 
32768 1:0.6925859 2:0.39495798 3:-0.81048495 
32768 1:0.69620253 2:0.34453782 3:-0.82249639 
32768 1:0.68655817 2:0.025210084 3:-0.81244256 
22967.73009836034 1:0.73477999 2:0.52941176 3:-0.79374414 
32768 1:0.72151899 2:0.37815126 3:-0.71500653 
32768 1:0.6769138 2:0.075630252 3:-0.72184349 
32768 1:0.72634117 2:0.52941176 3:-0.70455242 
32768 1:0.72151899 2:0.37815126 3:-0.71500653 
32768 1:0.72634117 2:0.52941176 3:-0.70455242 
32768 1:0.69981917 2:0.058823529 3:-0.6268602 
32768 1:0.70705244 2:0.12605042 3:-0.55152325 
32768 1:0.81072936 2:-0.51260504 3:-0.58285448 
32768 1:0.71308017 2:0.42857143 3:-0.55660228 
32768 1:0.71549126 2:-0.24369748 3:-0.57235013 
32768 1:0.78300181 2:-0.44537815 3:-0.53581778 
8437.193953329606 1:0.7058469 2:0.42857143 3:-0.49008647 
32768 1:0.72995781 2:0.41176471 3:-0.42258422 
32768 1:0.75045208 2:-0.41176471 3:-0.45676217 
32768 1:0.75045208 2:-0.41176471 3:-0.45676217 
32768 1:0.76009644 2:0.41176471 3:-0.41399732 
32768 1:0.76009644 2:0.41176471 3:-0.41399732 
32768 1:0.78179626 2:-0.51260504 3:-0.39128246 
32768 1:0.77576854 2:-0.54621849 3:-0.39612317 
3374.84863533055 1:0.74804099 2:0.36134454 3:-0.36176029 
32768 1:0.74804099 2:0.36134454 3:-0.36176029 
3979.133424577471 1:0.77576854 2:0.32773109 3:-0.3537297 
32768 1:0.77576854 2:-0.54621849 3:-0.39612317 
32768 1:0.71428571 2:-0.22689076 3:-0.34645113 
32768 1:0.69379144 2:-0.17647059 3:-0.29742799 
32768 1:0.71308017 2:-0.29411765 3:-0.31278254 
32768 1:0.76853526 2:-0.52941176 3:-0.33234732 
32768 1:0.73598553 2:-0.42857143 3:-0.33404972 
32768 1:0.75406872 2:0.12605042 3:-0.2518436 
32768 1:0.79626281 2:-0.64705882 3:-0.28931513 
32768 1:0.75406872 2:0.12605042 3:-0.2518436 
32768 1:0.75045208 2:0.092436975 3:-0.2504846 
32768 1:0.75045208 2:0.092436975 3:-0.2504846 
32768 1:0.74683544 2:0.042016807 3:-0.19560878 
32768 1:0.74201326 2:0.025210084 3:-0.19172659 
32768 1:0.74683544 2:0.042016807 3:-0.19560878 
32768 1:0.72634117 2:-0.22689076 3:-0.18379476 
32768 1:0.74924653 2:-0.4789916 3:-0.17239236 
32768 1:0.73598553 2:-0.15966387 3:-0.1396804 
32768 1:0.72513562 2:-0.22689076 3:-0.13255731 
32768 1:0.73598553 2:-0.15966387 3:-0.1396804 
32768 1:0.73477999 2:-0.19327731 3:-0.090732629 
32768 1:0.73477999 2:-0.19327731 3:-0.090732629 
32768 1:0.7721519 2:-0.59663866 3:-0.13595538 
32768 1:0.73477999 2:-0.21008403 3:-0.098217188 
32768 1:0.7456299 2:-0.4789916 3:-0.12708908 
32768 1:0.7456299 2:-0.4789916 3:-0.12708908 
32768 1:0.74201326 2:-0.42857143 3:-0.13920497 
32768 1:0.73477999 2:-0.19327731 3:-0.090732629 
32768 1:0.74442435 2:-0.21008403 3:-0.041317974 
32768 1:0.74442435 2:-0.21008403 3:-0.041317974 
32768 1:0.74442435 2:-0.21008403 3:-0.041317974 
32768 1:0.73357444 2:-0.21008403 3:-0.051203524 
32768 1:0.74442435 2:-0.21008403 3:-0.041317974 
32768 1:0.54068716 2:0.66386555 3:-0.9023107 
32768 1:0.64436407 2:0.21008403 3:-0.91544037 
32768 1:0.55877034 2:0.15966387 3:-0.91521283 
11055.86358125841 1:0.56962025 2:0.29411765 3:-0.81168389 
2261.444213791732 1:0.57444244 2:0.36134454 3:-0.63242751 
207.4121008705844 1:0.59975889 2:0.24369748 3:-0.30706347 
3999.292215147011 1:0.60940325 2:0.24369748 3:-0.30676414 
4869.828619075233 1:0.60096444 2:0.24369748 3:-0.25273742 
247.1926228982942 1:0.59975889 2:0.24369748 3:-0.25456816 
18476.05909073009 1:0.59855335 2:0.21008403 3:-0.15109946 
32768 1:0.74080772 2:0.15966387 3:-0.89880386 
32768 1:0.74080772 2:0.15966387 3:-0.89880386 
32768 1:0.67088608 2:0.42857143 3:-0.90518277 
5652.52234894939 1:0.920434 2:0.49579832 3:-0.91390481 
31855.00710141641 1:0.920434 2:0.49579832 3:-0.91390481 
32768 1:0.7456299 2:0.17647059 3:-0.79241173 
32768 1:0.70705244 2:-0.46218487 3:-0.79353208 
32768 1:0.70705244 2:0.21008403 3:-0.79297095 
32768 1:0.70705244 2:-0.46218487 3:-0.79353208 
32768 1:0.72995781 2:-0.71428571 3:-0.69504833 
32768 1:0.87341772 2:0.31092437 3:-0.72103586 
32768 1:0.6901748 2:-0.29411765 3:-0.69953966 
32768 1:0.87341772 2:0.31092437 3:-0.72103586 
32768 1:0.87341772 2:0.31092437 3:-0.72103586 
5456.27861027745 1:0.92525618 2:0.4789916 3:-0.72078875 
32768 1:0.87341772 2:0.31092437 3:-0.72103586 
32768 1:0.74683544 2:0.15966387 3:-0.61880099 
32768 1:0.88547318 2:0.36134454 3:-0.64159077 
32768 1:0.89270645 2:0.37815126 3:-0.6387698 
32768 1:0.86136227 2:0.19327731 3:-0.63850251 
32768 1:0.73357444 2:-0.34453782 3:-0.63050393 
32768 1:0.73357444 2:-0.34453782 3:-0.63050393 
32768 1:0.86136227 2:0.19327731 3:-0.63850251 
32768 1:0.89270645 2:0.37815126 3:-0.6387698 
32768 1:0.70464135 2:-0.8487395 3:-0.52844229 
32768 1:0.7721519 2:-0.19327731 3:-0.52396903 
7774.371185442531 1:0.92405063 2:0.54621849 3:-0.55655943 
32768 1:0.70464135 2:-0.8487395 3:-0.52844229 
32768 1:0.70464135 2:-0.8487395 3:-0.52844229 
25799.16807747971 1:0.89993972 2:0.41176471 3:-0.56568029 
32768 1:0.82640145 2:0.22689076 3:-0.4838502 
32768 1:0.78661844 2:-0.22689076 3:-0.45209952 
32768 1:0.86377336 2:0.22689076 3:-0.48746744 
32768 1:0.70946353 2:-0.83193277 3:-0.44855485 
32768 1:0.70946353 2:-0.83193277 3:-0.44855485 
32768 1:0.73598553 2:-0.78151261 3:-0.3681602 
32768 1:0.73598553 2:-0.78151261 3:-0.3681602 
32768 1:0.73598553 2:-0.78151261 3:-0.3681602 
32768 1:0.73598553 2:-0.78151261 3:-0.3681602 
32768 1:0.83363472 2:-0.092436975 3:-0.39454974 
32768 1:0.87341772 2:0.31092437 3:-0.42801348 
32768 1:0.79144063 2:-0.22689076 3:-0.38023887 
32768 1:0.75406872 2:-0.76470588 3:-0.30207985 
32768 1:0.75406872 2:-0.76470588 3:-0.30207985 
32768 1:0.75406872 2:-0.76470588 3:-0.30207985 
32768 1:0.75406872 2:-0.76470588 3:-0.30207985 
12257.29885155741 1:0.87582881 2:0.31092437 3:-0.35601369 
32768 1:0.77938517 2:-0.41176471 3:-0.30095954 
32768 1:0.77938517 2:-0.41176471 3:-0.30095954 
32768 1:0.78902954 2:-0.44537815 3:-0.24128155 
32768 1:0.8649789 2:0.17647059 3:-0.30267437 
32768 1:0.81072936 2:-0.17647059 3:-0.25249472 
32768 1:0.81314045 2:-0.21008403 3:-0.24136878 
32768 1:0.80108499 2:-0.22689076 3:-0.24245864 
32768 1:0.83725136 2:-0.042016807 3:-0.28918247 
32768 1:0.76491863 2:-0.71428571 3:-0.23757499 
32768 1:0.79023508 2:-0.41176471 3:-0.18110803 
32768 1:0.81916817 2:-0.15966387 3:-0.13511378 
32768 1:0.84086799 2:-0.21008403 3:-0.16191148 
32768 1:0.81916817 2:-0.17647059 3:-0.14128268 
32768 1:0.86618445 2:0.21008403 3:-0.14733114 
32768 1:0.81796263 2:-0.17647059 3:-0.089953513 
32768 1:0.81675708 2:-0.15966387 3:-0.080316872 
32768 1:0.83242917 2:-0.17647059 3:-0.10221927 
32768 1:0.83966245 2:-0.092436975 3:-0.082492272 
32768 1:0.81675708 2:-0.19327731 3:-0.012019836 
32768 1:0.79746835 2:-0.41176471 3:-0.030770291 
32768 1:0.79626281 2:-0.41176471 3:-0.031335955 
32768 1:0.80108499 2:-0.39495798 3:0.012290886 
12085.30342414322 1:0.8782399 2:0.42857143 3:-0.066764029 
32768 1:0.82760699 2:-0.14285714 3:0.023385968 
32768 1:0.80108499 2:-0.41176471 3:0.019838928 
32768 1:0.82278481 2:-0.14285714 3:0.016113696 
32768 1:0.82278481 2:-0.17647059 3:0.037151562 
32768 1:0.74683544 2:0.46218487 3:-0.91068099 
32768 1:0.64195298 2:0.29411765 3:-0.89326532 
32768 1:0.71066908 2:0.42857143 3:-0.90607949 
32768 1:0.71066908 2:0.42857143 3:-0.90607949 
32768 1:0.67450271 2:0.34453782 3:-0.89496828 
32768 1:0.5045208 2:0.15966387 3:-0.91564416 
32768 1:0.64195298 2:0.29411765 3:-0.89326532 
32768 1:0.74683544 2:0.46218487 3:-0.91068099 
32768 1:0.67932489 2:0.14285714 3:-0.80566237 
32768 1:0.72393008 2:0.39495798 3:-0.80665752 
32768 1:0.72393008 2:0.37815126 3:-0.8103296 
32768 1:0.72393008 2:0.37815126 3:-0.8103296 
32768 1:0.72393008 2:0.39495798 3:-0.80665752 
32768 1:0.72393008 2:0.37815126 3:-0.8103296 
32768 1:0.71187462 2:0.36134454 3:-0.71623404 
32768 1:0.69499699 2:0.22689076 3:-0.71524734 
32768 1:0.71187462 2:0.36134454 3:-0.71623404 
32768 1:0.71187462 2:0.36134454 3:-0.71623404 
32768 1:0.71187462 2:0.36134454 3:-0.71623404 
32768 1:0.70946353 2:0.41176471 3:-0.63311717 
32768 1:0.70946353 2:0.41176471 3:-0.63311717 
16708.74499236949 1:0.68173599 2:0.31092437 3:-0.6481909 
32768 1:0.66726944 2:0.17647059 3:-0.64666295 
32768 1:0.70946353 2:0.41176471 3:-0.63311717 
32768 1:0.68535262 2:0.34453782 3:-0.57103452 
32768 1:0.69138035 2:0.32773109 3:-0.57428672 
32768 1:0.70946353 2:0.42857143 3:-0.55925146 
32768 1:0.68535262 2:0.34453782 3:-0.57103452 
32768 1:0.66968053 2:0.19327731 3:-0.57186032 
32768 1:0.66968053 2:0.21008403 3:-0.56669863 
5023.555685004564 1:0.67450271 2:0.32773109 3:-0.5839914 
11008.53262794563 1:0.67209162 2:0.22689076 3:-0.49760318 
32768 1:0.66485835 2:0.22689076 3:-0.51303782 
1558.34346275047 1:0.6925859 2:0.36134454 3:-0.50354342 
32768 1:0.67209162 2:0.22689076 3:-0.49760318 
19072.38554638079 1:0.6925859 2:0.36134454 3:-0.50354342 
6494.270189273474 1:0.70102471 2:0.41176471 3:-0.49682224 
1608.168926955752 1:0.63230862 2:0.12605042 3:-0.40096867 
26894.59528255141 1:0.68896926 2:0.37815126 3:-0.32891751 
32768 1:0.68414708 2:0.39495798 3:-0.28442801 
32768 1:0.68294153 2:0.37815126 3:-0.27792182 
8345.670013503157 1:0.68173599 2:0.37815126 3:-0.2245196 
32768 1:0.67088608 2:0.36134454 3:-0.23879017 
8123.675132042879 1:0.6769138 2:0.31092437 3:-0.22912401 
18343.57287667142 1:0.6769138 2:0.32773109 3:-0.1811424 
31.62003152620606 1:0.46835443 2:0.32773109 3:-0.63669027 
3858.577542502123 1:0.56118143 2:0.14285714 3:-0.52183114 
2371.823399978937 1:0.52983725 2:0.19327731 3:-0.41627426 
23053.21320738144 1:0.47920434 2:0.34453782 3:-0.44097075 
25816.49754006981 1:0.53465943 2:0.15966387 3:-0.39967005 
1126.235936099395 1:0.50813743 2:0.22689076 3:-0.32441002 
6468.106090933804 1:0.51295961 2:0.17647059 3:-0.30830163 
14769.69286505381 1:0.48402652 2:0.34453782 3:-0.33926096 
4267.615620441025 1:0.53465943 2:0.14285714 3:-0.20511689 
8052.672487054615 1:0.53586498 2:0.17647059 3:-0.21854123 
681.987712910366 1:0.49608198 2:0.15966387 3:-0.20829706 
2587.064446331294 1:0.49849307 2:0.17647059 3:-0.22001774 
904.9696381806607 1:0.53465943 2:0.12605042 3:-0.2083506 
9002.098087986536 1:0.55153707 2:0.21008403 3:-0.13328618 
32768 1:0.55153707 2:0.21008403 3:-0.13328618 
18741.03058708639 1:0.51898734 2:0.15966387 3:-0.12777334 
32768 1:0.52983725 2:0.21008403 3:-0.060772162 
32768 1:0.52983725 2:0.21008403 3:-0.060772162 
15114.97379739553 1:0.53465943 2:0.19327731 3:-0.048476323 
8189.381727141574 1:0.50934298 2:0.32773109 3:0.041758928 
32768 1:0.69620253 2:0.36134454 3:-0.93670048 
32768 1:0.80349608 2:0.2605042 3:-0.92874234 
32768 1:0.73960217 2:0.31092437 3:-0.93052269 
32768 1:0.80349608 2:0.2605042 3:-0.92874234 
32768 1:0.74924653 2:-0.12605042 3:-0.9252548 
32768 1:0.79144063 2:0.2605042 3:-0.9350408 
32768 1:0.69620253 2:0.36134454 3:-0.93670048 
32768 1:0.69620253 2:0.36134454 3:-0.93670048 
32768 1:0.76612417 2:-0.31092437 3:-0.96756511 
32768 1:0.80952381 2:-0.86554622 3:-0.87616271 
32768 1:0.75647981 2:0.24369748 3:-0.84533528 
32768 1:0.75045208 2:-0.81512605 3:-0.86528868 
32768 1:0.80952381 2:-0.86554622 3:-0.87616271 
32768 1:0.75647981 2:0.24369748 3:-0.84533528 
32768 1:0.79023508 2:-0.27731092 3:-0.88436922 
32768 1:0.75647981 2:0.24369748 3:-0.84533528 
32768 1:0.76974081 2:-0.025210084 3:-0.84956741 
32768 1:0.77094635 2:0.042016807 3:-0.83979474 
32768 1:0.77576854 2:-0.83193277 3:-0.75164433 
32768 1:0.8119349 2:-0.74789916 3:-0.78948702 
32768 1:0.75647981 2:0.31092437 3:-0.7596045 
32768 1:0.79505726 2:-0.91596639 3:-0.79167526 
32768 1:0.78661844 2:-0.32773109 3:-0.80241096 
32768 1:0.74924653 2:0.075630252 3:-0.76126061 
32768 1:0.74924653 2:0.075630252 3:-0.76126061 
32768 1:0.74924653 2:0.075630252 3:-0.76126061 
32768 1:0.73598553 2:-0.075630252 3:-0.74886664 
32768 1:0.75647981 2:0.31092437 3:-0.7596045 
32768 1:0.75165763 2:0.15966387 3:-0.68285953 
32768 1:0.75165763 2:0.15966387 3:-0.68285953 
32768 1:0.79746835 2:-0.71428571 3:-0.70631038 
32768 1:0.76974081 2:-0.2605042 3:-0.72291438 
32768 1:0.75165763 2:0.15966387 3:-0.68285953 
32768 1:0.75406872 2:-0.94957983 3:-0.70792286 
32768 1:0.75165763 2:0.15966387 3:-0.68285953 
32768 1:0.75165763 2:0.15966387 3:-0.68285953 
32768 1:0.76250753 2:0.075630252 3:-0.68375476 
32768 1:0.76250753 2:0.075630252 3:-0.68375476 
32768 1:0.75527426 2:-0.91596639 3:-0.63811187 
32768 1:0.74683544 2:-0.22689076 3:-0.64660041 
32768 1:0.74201326 2:-0.025210084 3:-0.62403754 
32768 1:0.76250753 2:0.075630252 3:-0.6215845 
32768 1:0.7588909 2:-0.15966387 3:-0.63800485 
32768 1:0.75286317 2:0.025210084 3:-0.62762749 
32768 1:0.76130199 2:0.092436975 3:-0.61331043 
32768 1:0.75286317 2:0.24369748 3:-0.62119901 
32768 1:0.78661844 2:-0.68067227 3:-0.64499917 
32768 1:0.76130199 2:0.092436975 3:-0.61331043 
32768 1:0.76130199 2:0.075630252 3:-0.55601804 
32768 1:0.77576854 2:-0.6302521 3:-0.60735847 
32768 1:0.74442435 2:-0.91596639 3:-0.57838115 
32768 1:0.76130199 2:0.075630252 3:-0.55601804 
32768 1:0.76974081 2:-0.1092437 3:-0.58973376 
32768 1:0.74442435 2:-0.91596639 3:-0.57838115 
32768 1:0.76130199 2:0.075630252 3:-0.55601804 
32768 1:0.76130199 2:0.075630252 3:-0.55601804 
32768 1:0.76130199 2:0.075630252 3:-0.55601804 
32768 1:0.76371308 2:-0.075630252 3:-0.59230898 
32768 1:0.76371308 2:0.092436975 3:-0.49557464 
32768 1:0.76371308 2:0.092436975 3:-0.49557464 
32768 1:0.76371308 2:0.092436975 3:-0.49557464 
32768 1:0.76371308 2:0.092436975 3:-0.49557464 
32768 1:0.75165763 2:-0.8487395 3:-0.47941614 
32768 1:0.76853526 2:0.092436975 3:-0.49417855 
32768 1:0.75286317 2:-0.89915966 3:-0.49998008 
32768 1:0.76853526 2:0.092436975 3:-0.49417855 
32768 1:0.7721519 2:-0.14285714 3:-0.5409583 
32768 1:0.76009644 2:-0.21008403 3:-0.52902516 
32768 1:0.74442435 2:-0.075630252 3:-0.45975264 
32768 1:0.75165763 2:-0.59663866 3:-0.49070659 
32768 1:0.76974081 2:0.1092437 3:-0.43737309 
32768 1:0.7456299 2:-0.89915966 3:-0.44860436 
32768 1:0.76974081 2:0.1092437 3:-0.43737309 
32768 1:0.76491863 2:-0.4789916 3:-0.48303899 
32768 1:0.75286317 2:-0.092436975 3:-0.49380624 
32768 1:0.76974081 2:0.1092437 3:-0.43737309 
32768 1:0.74321881 2:-0.89915966 3:-0.44443377 
32768 1:0.73598553 2:-0.89915966 3:-0.44175928 
32768 1:0.73839662 2:-0.89915966 3:-0.38665 
32768 1:0.75406872 2:-0.092436975 3:-0.45185556 
32768 1:0.76612417 2:-0.0084033613 3:-0.4205263 
32768 1:0.78059072 2:-0.59663866 3:-0.41685897 
32768 1:0.76491863 2:-0.88235294 3:-0.39609709 
32768 1:0.73719108 2:-0.89915966 3:-0.39546081 
32768 1:0.76612417 2:-0.0084033613 3:-0.4205263 
32768 1:0.74804099 2:-0.91596639 3:-0.38679815 
32768 1:0.78059072 2:0.1092437 3:-0.38180374 
32768 1:0.74804099 2:-0.91596639 3:-0.38679815 
32768 1:0.73960217 2:-0.91596639 3:-0.33568634 
32768 1:0.73960217 2:-0.91596639 3:-0.33568634 
32768 1:0.77697408 2:0.0084033613 3:-0.37046035 
32768 1:0.76612417 2:-0.57983193 3:-0.38571695 
32768 1:0.75406872 2:-0.042016807 3:-0.36047556 
32768 1:0.73960217 2:-0.91596639 3:-0.33568634 
32768 1:0.74683544 2:-0.075630252 3:-0.36954686 
32768 1:0.77817963 2:-0.0084033613 3:-0.40924968 
32768 1:0.75286317 2:-0.1092437 3:-0.39579354 
32768 1:0.74080772 2:-0.91596639 3:-0.32751085 
32768 1:0.76491863 2:-0.042016807 3:-0.354197 
32768 1:0.77576854 2:-0.44537815 3:-0.3437568 
32768 1:0.76491863 2:-0.042016807 3:-0.354197 
32768 1:0.78661844 2:-0.0084033613 3:-0.36338201 
32768 1:0.7588909 2:-0.075630252 3:-0.36324855 
32768 1:0.7588909 2:-0.075630252 3:-0.36324855 
32768 1:0.78661844 2:-0.0084033613 3:-0.36338201 
32768 1:0.78661844 2:-0.0084033613 3:-0.36338201 
32768 1:0.77697408 2:-0.21008403 3:-0.33821774 
32768 1:0.76491863 2:-0.042016807 3:-0.354197 
32768 1:0.74924653 2:-0.88235294 3:-0.21941663 
32768 1:0.73598553 2:-0.89915966 3:-0.23350673 
32768 1:0.76250753 2:-0.56302521 3:-0.28691378 
32768 1:0.75768535 2:-0.092436975 3:-0.31216254 
32768 1:0.76009644 2:-0.058823529 3:-0.32171438 
32768 1:0.76009644 2:-0.058823529 3:-0.32171438 
32768 1:0.7588909 2:-0.57983193 3:-0.27376813 
32768 1:0.73116335 2:-0.89915966 3:-0.22292349 
32768 1:0.76371308 2:-0.78151261 3:-0.23350411 
32768 1:0.77335744 2:-0.025210084 3:-0.31109281 
32768 1:0.76853526 2:-0.058823529 3:-0.28109085 
32768 1:0.74683544 2:-0.89915966 3:-0.17653245 
32768 1:0.76853526 2:-0.092436975 3:-0.27167919 
32768 1:0.77697408 2:-0.025210084 3:-0.26666267 
32768 1:0.77697408 2:-0.025210084 3:-0.26666267 
32768 1:0.76853526 2:-0.058823529 3:-0.28109085 
32768 1:0.76853526 2:-0.058823529 3:-0.28109085 
32768 1:0.76612417 2:-0.075630252 3:-0.27084396 
32768 1:0.74683544 2:-0.89915966 3:-0.17653245 
32768 1:0.76853526 2:-0.058823529 3:-0.28109085 
32768 1:0.7721519 2:-0.042016807 3:-0.23998694 
32768 1:0.7721519 2:-0.042016807 3:-0.23998694 
32768 1:0.7456299 2:-0.89915966 3:-0.1301451 
32768 1:0.76853526 2:-0.86554622 3:-0.14686553 
32768 1:0.76853526 2:-0.14285714 3:-0.22621501 
32768 1:0.7721519 2:-0.042016807 3:-0.23998694 
32768 1:0.7721519 2:-0.042016807 3:-0.23998694 
32768 1:0.7721519 2:-0.042016807 3:-0.23998694 
32768 1:0.72995781 2:-0.89915966 3:-0.12887018 
32768 1:0.75647981 2:-0.6302521 3:-0.16973589 
28358.42864609921 1:0.60699216 2:0.075630252 3:-0.90845671 
32768 1:0.60699216 2:0.075630252 3:-0.90845671 
1760.035316685255 1:0.48040989 2:0.22689076 3:-0.76914749 
1820.775750308057 1:0.49849307 2:0.2605042 3:-0.69356373 
4027.661377817448 1:0.48282098 2:0.29411765 3:-0.64272015 
26472.4725702488 1:0.4755877 2:0.27731092 3:-0.58427649 
28574.17060198597 1:0.46473779 2:0.2605042 3:-0.53346756 
6580.031932237161 1:0.45388788 2:0.29411765 3:-0.48247368 
32768 1:0.45388788 2:0.29411765 3:-0.48247368 
32768 1:0.45388788 2:0.29411765 3:-0.48247368 
16249.84607398406 1:0.44062688 2:0.37815126 3:-0.29879928 
9266.238889482165 1:0.45629898 2:0.32773109 3:-0.43467048 
32768 1:0.44062688 2:0.37815126 3:-0.29879928 
27944.81617611877 1:0.45750452 2:0.29411765 3:-0.39123528 
6838.971762928049 1:0.45750452 2:0.31092437 3:-0.35307788 
1539.545708084557 1:0.45750452 2:0.17647059 3:-0.25321032 
32768 1:0.79987945 2:0.57983193 3:-0.81527948 
32768 1:0.82881254 2:0.46218487 3:-0.68750752 
32768 1:0.79385172 2:0.39495798 3:-0.69405056 
32768 1:0.79385172 2:0.39495798 3:-0.69405056 
32768 1:0.82881254 2:0.46218487 3:-0.68750752 
32768 1:0.81675708 2:0.32773109 3:-0.58324289 
32768 1:0.83363472 2:0.46218487 3:-0.56735801 
32768 1:0.7854129 2:0.22689076 3:-0.60532156 
32768 1:0.81675708 2:0.32773109 3:-0.58324289 
32768 1:0.82399036 2:0.32773109 3:-0.47645025 
32768 1:0.82399036 2:0.32773109 3:-0.47645025 
32768 1:0.80952381 2:0.39495798 3:-0.46781505 
32768 1:0.81796263 2:0.37815126 3:-0.47020714 
32768 1:0.82278481 2:0.39495798 3:-0.37639321 
32768 1:0.8119349 2:0.24369748 3:-0.38490238 
32768 1:0.80470163 2:0.31092437 3:-0.38695248 
32768 1:0.81314045 2:0.31092437 3:-0.41514094 
32768 1:0.8119349 2:0.24369748 3:-0.38490238 
10789.01413064741 1:0.81555154 2:0.27731092 3:-0.34306061 
32768 1:0.79746835 2:0.21008403 3:-0.30216174 
6168.539735386313 1:0.82278481 2:0.24369748 3:-0.30050842 
32768 1:0.76491863 2:-0.0084033613 3:-0.42415013 
32768 1:0.79746835 2:0.17647059 3:-0.14784026 
32768 1:0.80108499 2:0.19327731 3:-0.18735461 
32768 1:0.79746835 2:0.17647059 3:-0.14784026 
32768 1:0.79746835 2:0.17647059 3:-0.14784026 
5158.509237084724 1:0.80711272 2:0.22689076 3:-0.077716639 
32768 1:0.79505726 2:0.042016807 3:-0.081209708 
32768 1:0.80711272 2:0.22689076 3:-0.077716639 
31511.58677290805 1:0.80711272 2:0.22689076 3:-0.077716639 
32768 1:0.76250753 2:-0.21008403 3:-0.27136804 
32768 1:0.76250753 2:-0.21008403 3:-0.27136804 
32768 1:0.80711272 2:0.21008403 3:-0.0055179431 
32768 1:0.76250753 2:-0.21008403 3:-0.27136804 
32768 1:0.76371308 2:-0.14285714 3:-0.25680816 
32768 1:0.78902954 2:0.15966387 3:-0.056168123 
32768 1:0.80349608 2:0.058823529 3:-0.015499683 
32768 1:0.80349608 2:0.058823529 3:-0.015499683 
32768 1:0.77817963 2:0.042016807 3:-0.25979063 
32768 1:0.80349608 2:0.058823529 3:-0.015499683 
32768 1:0.76974081 2:-0.17647059 3:-0.21967298 
32768 1:0.79626281 2:0.042016807 3:0.042385974 
32768 1:0.77938517 2:0.075630252 3:0.0056854302 
32768 1:0.79626281 2:0.042016807 3:0.042385974 
32768 1:0.79626281 2:0.042016807 3:0.042385974 
32768 1:0.76250753 2:-0.31092437 3:-0.22505078 
32768 1:0.76250753 2:-0.31092437 3:-0.22505078 
32768 1:0.80349608 2:0.042016807 3:0.052485028 
32768 1:0.76250753 2:-0.31092437 3:-0.22505078 
32768 1:0.76250753 2:-0.31092437 3:-0.22505078 
32768 1:0.76974081 2:-0.29411765 3:-0.17598745 
32768 1:0.76974081 2:-0.29411765 3:-0.17598745 
32768 1:0.76974081 2:-0.29411765 3:-0.17598745 
32768 1:0.79626281 2:0.025210084 3:0.10664247 
32768 1:0.79626281 2:0.025210084 3:0.10664247 
32768 1:0.7721519 2:0.025210084 3:-0.16346408 
32768 1:0.76974081 2:-0.29411765 3:-0.17598745 
32768 1:0.79626281 2:0.025210084 3:0.10664247 
32768 1:0.76974081 2:-0.29411765 3:-0.17598745 
32768 1:0.76974081 2:-0.29411765 3:-0.17598745 
32768 1:0.77817963 2:-0.27731092 3:-0.13520919 
32768 1:0.77817963 2:-0.27731092 3:-0.13520919 
32768 1:0.77817963 2:-0.27731092 3:-0.13520919 
32768 1:0.77817963 2:-0.27731092 3:-0.13520919 
32768 1:0.77817963 2:-0.27731092 3:-0.13520919 
29500.32081314861 1:0.79264617 2:-0.0084033613 3:0.073271468 
32768 1:0.77817963 2:-0.27731092 3:-0.13520919 
32768 1:0.77576854 2:-0.32773109 3:-0.095027596 
32768 1:0.77576854 2:-0.32773109 3:-0.095027596 
32768 1:0.77576854 2:-0.2605042 3:-0.091956202 
24158.51159012344 1:0.78782399 2:-0.025210084 3:0.12529267 
32768 1:0.76974081 2:-0.17647059 3:-0.083263781 
26701.31030238545 1:0.78782399 2:-0.025210084 3:0.12529267 
32768 1:0.77576854 2:-0.2605042 3:-0.091956202 
4379.399082941257 1:0.49367089 2:0.64705882 3:-0.9239729 
6054.709133343026 1:0.43218807 2:0.52941176 3:-0.76684319 
32768 1:0.7456299 2:-0.2605042 3:-0.91106822 
32768 1:0.62989753 2:-0.31092437 3:-0.85622284 
32768 1:0.65159735 2:-0.17647059 3:-0.86231504 
32768 1:0.65159735 2:-0.17647059 3:-0.86231504 
32768 1:0.65159735 2:-0.17647059 3:-0.86231504 
32768 1:0.65159735 2:-0.17647059 3:-0.86231504 
32768 1:0.62989753 2:-0.31092437 3:-0.85622284 
32768 1:0.74201326 2:-0.56302521 3:-0.80557715 
32768 1:0.6769138 2:-0.17647059 3:-0.77834725 
32768 1:0.6769138 2:-0.17647059 3:-0.77834725 
32768 1:0.6769138 2:-0.17647059 3:-0.77834725 
32768 1:0.62748644 2:-0.27731092 3:-0.75801515 
32768 1:0.66244726 2:-0.34453782 3:-0.78422532 
32768 1:0.65521398 2:-0.46218487 3:-0.77904797 
32768 1:0.65521398 2:-0.46218487 3:-0.77904797 
32768 1:0.64074744 2:-0.2605042 3:-0.78804218 
32768 1:0.6769138 2:-0.17647059 3:-0.77834725 
32768 1:0.67450271 2:-0.66386555 3:-0.70376924 
32768 1:0.6371308 2:-0.042016807 3:-0.67480935 
32768 1:0.6371308 2:-0.32773109 3:-0.70137668 
32768 1:0.6503918 2:-0.37815126 3:-0.71279727 
32768 1:0.6371308 2:-0.32773109 3:-0.70137668 
32768 1:0.65400844 2:-0.51260504 3:-0.69516674 
32768 1:0.6371308 2:-0.042016807 3:-0.67480935 
32768 1:0.67932489 2:-0.058823529 3:-0.71108901 
32768 1:0.6371308 2:-0.32773109 3:-0.70137668 
32768 1:0.66726944 2:-0.61344538 3:-0.64137323 
32768 1:0.70946353 2:-0.66386555 3:-0.64900251 
32768 1:0.74321881 2:-0.91596639 3:-0.55015903 
32768 1:0.65641953 2:-0.2605042 3:-0.63470446 
32768 1:0.69138035 2:0.075630252 3:-0.64275306 
32768 1:0.65641953 2:-0.2605042 3:-0.63470446 
32768 1:0.65400844 2:-0.41176471 3:-0.61264558 
32768 1:0.65641953 2:-0.2605042 3:-0.63470446 
32768 1:0.65762508 2:-0.59663866 3:-0.6150622 
32768 1:0.64436407 2:-0.17647059 3:-0.62716667 
32768 1:0.65883062 2:-0.22689076 3:-0.56557388 
32768 1:0.6503918 2:-0.59663866 3:-0.55277192 
32768 1:0.6503918 2:-0.57983193 3:-0.55509729 
32768 1:0.67932489 2:-0.058823529 3:-0.58858621 
32768 1:0.74321881 2:-0.91596639 3:-0.47105836 
32768 1:0.69861362 2:-0.51260504 3:-0.59114429 
32768 1:0.6503918 2:-0.59663866 3:-0.55277192 
32768 1:0.72995781 2:-0.91596639 3:-0.46885224 
32768 1:0.67932489 2:-0.058823529 3:-0.58858621 
32768 1:0.74321881 2:-0.91596639 3:-0.51572258 
32768 1:0.67209162 2:-0.12605042 3:-0.51747745 
32768 1:0.67329717 2:-0.73109244 3:-0.50254687 
32768 1:0.64556962 2:-0.59663866 3:-0.49715158 
32768 1:0.71669681 2:-0.81512605 3:-0.4886389 
32768 1:0.68173599 2:0.1092437 3:-0.53725122 
32768 1:0.68173599 2:0.1092437 3:-0.53725122 
32768 1:0.7323689 2:-0.91596639 3:-0.39786168 
32768 1:0.67209162 2:-0.12605042 3:-0.51747745 
32768 1:0.76009644 2:-0.91596639 3:-0.42249978 
32768 1:0.67209162 2:-0.12605042 3:-0.51747745 
32768 1:0.67450271 2:-0.075630252 3:-0.46945167 
32768 1:0.69620253 2:-0.71428571 3:-0.45879522 
32768 1:0.6636528 2:-0.61344538 3:-0.43526732 
32768 1:0.68655817 2:-0.15966387 3:-0.45003336 
32768 1:0.7034358 2:-0.73109244 3:-0.4583125 
32768 1:0.74924653 2:-0.91596639 3:-0.34383618 
32768 1:0.67450271 2:-0.075630252 3:-0.46945167 
32768 1:0.67329717 2:-0.14285714 3:-0.45465924 
32768 1:0.65762508 2:-0.69747899 3:-0.43702556 
32768 1:0.74924653 2:-0.91596639 3:-0.34383618 
32768 1:0.63954189 2:-0.6302521 3:-0.3778391 
32768 1:0.63954189 2:-0.6302521 3:-0.3778391 
32768 1:0.67450271 2:-0.092436975 3:-0.40937139 
32768 1:0.68655817 2:-0.1092437 3:-0.40336514 
32768 1:0.67209162 2:-0.69747899 3:-0.37763454 
32768 1:0.66124171 2:-0.71428571 3:-0.37700341 
32768 1:0.63954189 2:-0.6302521 3:-0.3778391 
889.4785727269475 1:0.6636528 2:-0.058823529 3:-0.42000873 
32768 1:0.6636528 2:-0.058823529 3:-0.42000873 
32768 1:0.67329717 2:-0.61344538 3:-0.36137825 
32768 1:0.71066908 2:-0.91596639 3:-0.31641226 
32768 1:0.6503918 2:-0.71428571 3:-0.32214418 
32768 1:0.67209162 2:-0.025210084 3:-0.37382311 
32768 1:0.68173599 2:-0.69747899 3:-0.33843303 
32768 1:0.63954189 2:-0.71428571 3:-0.32125635 
32768 1:0.67209162 2:-0.025210084 3:-0.37382311 
32768 1:0.6503918 2:-0.6302521 3:-0.36358632 
32768 1:0.6503918 2:-0.71428571 3:-0.32214418 
32768 1:0.65400844 2:-0.71428571 3:-0.2678902 
32768 1:0.65280289 2:-0.61344538 3:-0.31129583 
32768 1:0.6636528 2:-0.042016807 3:-0.32330624 
32768 1:0.71669681 2:-0.86554622 3:-0.27021947 
32768 1:0.68655817 2:-0.57983193 3:-0.3131173 
32768 1:0.65280289 2:-0.61344538 3:-0.31129583 
32768 1:0.71669681 2:-0.86554622 3:-0.27021947 
32768 1:0.6636528 2:-0.042016807 3:-0.32330624 
32768 1:0.72151899 2:-0.93277311 3:-0.25817749 
32768 1:0.67811935 2:-0.14285714 3:-0.31214586 
32768 1:0.68294153 2:-0.12605042 3:-0.26960467 
32768 1:0.66968053 2:-0.14285714 3:-0.26964806 
32768 1:0.67450271 2:-0.042016807 3:-0.27790598 
32768 1:0.66485835 2:-0.12605042 3:-0.27214784 
32768 1:0.71066908 2:-0.83193277 3:-0.24150588 
32768 1:0.68294153 2:-0.12605042 3:-0.26960467 
32768 1:0.67209162 2:-0.71428571 3:-0.23295149 
32768 1:0.7323689 2:-0.93277311 3:-0.16221116 
32768 1:0.67570826 2:-0.12605042 3:-0.22925292 
32768 1:0.67570826 2:-0.12605042 3:-0.22925292 
32768 1:0.67570826 2:-0.12605042 3:-0.22925292 
32768 1:0.65400844 2:-0.61344538 3:-0.21647811 
32768 1:0.71790235 2:-0.93277311 3:-0.10298847 
32768 1:0.67570826 2:-0.12605042 3:-0.22925292 
32768 1:0.68053044 2:-0.19327731 3:-0.22655165 
32768 1:0.71549126 2:-0.89915966 3:-0.1743219 
32768 1:0.67570826 2:-0.12605042 3:-0.22925292 
32768 1:0.71187462 2:-0.93277311 3:-0.11991386 
32768 1:0.65883062 2:-0.14285714 3:-0.18523582 
32768 1:0.71669681 2:-0.93277311 3:-0.056700903 
32768 1:0.65883062 2:-0.14285714 3:-0.18523582 
32768 1:0.65280289 2:-0.64705882 3:-0.1775237 
32768 1:0.65883062 2:-0.14285714 3:-0.18523582 
32768 1:0.65641953 2:-0.59663866 3:-0.17862878 
32768 1:0.68414708 2:-0.57983193 3:-0.18895316 
32768 1:0.65883062 2:-0.14285714 3:-0.18523582 
32768 1:0.75647981 2:0.49579832 3:-0.85933869 
32768 1:0.7323689 2:0.21008403 3:-0.61420246 
32768 1:0.60940325 2:0.44537815 3:-0.52776587 
2583.270134032057 1:0.6238698 2:0.14285714 3:-0.43526973 
14533.5138769757 1:0.64918626 2:0.37815126 3:-0.43097303 
32768 1:0.69861362 2:-0.092436975 3:-0.26805733 
32768 1:0.72513562 2:-0.21008403 3:-0.32769697 
32768 1:0.65280289 2:-0.56302521 3:-0.27051271 
32768 1:0.65641953 2:-0.1092437 3:-0.20699546 
32768 1:0.72393008 2:-0.21008403 3:-0.25476096 
32768 1:0.66726944 2:-0.61344538 3:-0.20062436 
32768 1:0.70946353 2:-0.32773109 3:-0.18736386 
32768 1:0.70946353 2:-0.32773109 3:-0.18736386 
32768 1:0.70946353 2:-0.32773109 3:-0.18736386 
32768 1:0.67811935 2:-0.31092437 3:-0.12546564 
32768 1:0.64798071 2:-0.4789916 3:-0.047341868 
32768 1:0.67811935 2:-0.31092437 3:-0.12546564 
32768 1:0.67570826 2:-0.52941176 3:-0.050629481 
32768 1:0.67811935 2:-0.31092437 3:-0.12546564 
32768 1:0.67088608 2:-0.42857143 3:0.013710437 
32768 1:0.67329717 2:-0.39495798 3:0.00047216592 
32768 1:0.65280289 2:-0.57983193 3:0.13513935 
32768 1:0.65521398 2:-0.46218487 3:0.17555773 
32768 1:0.68294153 2:-0.66386555 3:0.17896204 
22682.77463756298 1:0.60096444 2:0.49579832 3:-0.76229753 
32768 1:0.60096444 2:0.49579832 3:-0.76229753 
32768 1:0.60096444 2:0.49579832 3:-0.76229753 
13051.62796030208 1:0.57564798 2:0.4789916 3:-0.47833491 
32744.00696942572 1:0.49246534 2:0.17647059 3:-0.10774897 
22595.74162045054 1:0.49246534 2:0.17647059 3:-0.10774897 
30281.94051515873 1:0.52863171 2:0.15966387 3:-0.11414228 
32768 1:0.4912598 2:0.14285714 3:-0.043465422 
32768 1:0.45991561 2:0.15966387 3:-0.039636279 
32768 1:0.4912598 2:0.14285714 3:-0.043465422 
32768 1:0.5021097 2:0.14285714 3:-0.038652137 
5855.17254068936 1:0.46353225 2:0.37815126 3:-0.82435923 
32768 1:0.52019289 2:0.092436975 3:-0.7370947 
9689.076509293112 1:0.44062688 2:0.39495798 3:-0.74714356 
4510.519609232732 1:0.52380952 2:0.14285714 3:-0.6813668 
5668.690188319271 1:0.4888487 2:0.075630252 3:-0.5980149 
7773.599446536185 1:0.49246534 2:0.17647059 3:-0.55818409 
8837.227143677714 1:0.4623267 2:0.17647059 3:-0.57429936 
3845.107604055119 1:0.4888487 2:0.092436975 3:-0.51812248 
10864.90420729816 1:0.47920434 2:0.092436975 3:-0.40843132 
5120.393193396085 1:0.49849307 2:0.15966387 3:-0.49222587 
13991.27067622713 1:0.49246534 2:0.1092437 3:-0.55723803 
25730.7318232507 1:0.49367089 2:0.1092437 3:-0.48404366 
30037.58589401186 1:0.45388788 2:0.17647059 3:-0.29584031 
32768 1:0.48040989 2:0.14285714 3:-0.22826622 
4075.711887402548 1:0.41772152 2:0.092436975 3:-0.25456189 
32768 1:0.46714888 2:0.14285714 3:-0.11655683 
32768 1:0.49969861 2:0.12605042 3:-0.053774981 
32768 1:0.45027125 2:0.075630252 3:-0.079376289 
32768 1:0.49969861 2:0.12605042 3:-0.053774981 
32768 1:0.45388788 2:0.058823529 3:-0.070832051 
32768 1:0.48523207 2:0.1092437 3:-0.010854279 
32767.4993814882 1:0.45991561 2:0.058823529 3:-0.022414677 
1215.746610365234 1:0.50331525 2:0.058823529 3:-0.19748815 
2138.492044558396 1:0.51295961 2:0.058823529 3:-0.15927254 
88.62773201766505 1:0.51898734 2:0.058823529 3:-0.15559121 
32768 1:0.63833635 2:0.37815126 3:-0.94342257 
32768 1:0.63833635 2:0.37815126 3:-0.94342257 
7546.86897232376 1:0.61422544 2:0.4789916 3:-0.90666952 
32768 1:0.63230862 2:-0.32773109 3:-0.85301526 
32768 1:0.63230862 2:-0.32773109 3:-0.85301526 
27134.07527396848 1:0.57323689 2:0.41176471 3:-0.7097975 
5107.195299000678 1:0.5177818 2:0.39495798 3:-0.71948876 
32768 1:0.61422544 2:-0.31092437 3:-0.77589529 
284.2265352663749 1:0.52983725 2:0.34453782 3:-0.76613681 
756.055945280261 1:0.55394816 2:0.058823529 3:-0.67410586 
423.584157048601 1:0.55033153 2:0.27731092 3:-0.63347635 
2000.518570173216 1:0.55033153 2:0.27731092 3:-0.55344274 
32768 1:0.53465943 2:0.22689076 3:-0.60759571 
32768 1:0.53465943 2:0.22689076 3:-0.60759571 
32768 1:0.61663653 2:-0.36134454 3:-0.62935724 
2122.972450123006 1:0.56600362 2:0.32773109 3:-0.5347311 
556.6427631377217 1:0.55394816 2:0.15966387 3:-0.47026616 
32768 1:0.56600362 2:0.34453782 3:-0.40787871 
648.2839251924401 1:0.55394816 2:0.22689076 3:-0.42208695 
32768 1:0.64677517 2:-0.51260504 3:-0.43657181 
894.6905416718462 1:0.55515371 2:0.27731092 3:-0.35227408 
2207.522443408667 1:0.55877034 2:0.29411765 3:-0.29125648 
10509.4215294207 1:0.55635925 2:0.2605042 3:-0.3645445 
115.9305706900103 1:0.5575648 2:0.17647059 3:-0.35047259 
4343.259316416819 1:0.56238698 2:0.17647059 3:-0.29412189 
15444.26264688226 1:0.56600362 2:-0.29411765 3:-0.30684166 
1451.633089978231 1:0.56238698 2:0.27731092 3:-0.30769092 
32768 1:0.57685353 2:0.29411765 3:-0.16608431 
32768 1:0.57685353 2:0.29411765 3:-0.16608431 
32768 1:0.64315853 2:-0.6302521 3:-0.21453247 
32768 1:0.64315853 2:-0.6302521 3:-0.21453247 
528.4920954650061 1:0.57805907 2:0.4789916 3:-0.89100496 
4320.408948421557 1:0.59493671 2:0.4789916 3:-0.89684869 
32768 1:0.66003617 2:0.41176471 3:-0.90343167 
32617.66211427825 1:0.61543098 2:0.44537815 3:-0.89186166 
32768 1:0.6901748 2:0.14285714 3:-0.78054316 
32768 1:0.72634117 2:-0.56302521 3:-0.81312821 
5457.828629562265 1:0.67450271 2:0.57983193 3:-0.77193505 
32768 1:0.69981917 2:0.46218487 3:-0.78313867 
6644.075453472114 1:0.59614225 2:0.37815126 3:-0.78494872 
3641.405331908662 1:0.5840868 2:0.36134454 3:-0.68287241 
32768 1:0.6925859 2:0.46218487 3:-0.68697041 
32768 1:0.66726944 2:-0.46218487 3:-0.71299411 
6619.804386187348 1:0.54671489 2:0.39495798 3:-0.5947994 
24561.90466547339 1:0.64074744 2:0.41176471 3:-0.60268443 
16486.25488936519 1:0.62266426 2:0.092436975 3:-0.59150751 
32768 1:0.6503918 2:0.092436975 3:-0.58328592 
32768 1:0.65400844 2:0.17647059 3:-0.50670174 
32768 1:0.68173599 2:-0.44537815 3:-0.53453997 
32768 1:0.64436407 2:0.1092437 3:-0.51202789 
14348.51940727947 1:0.53827607 2:0.32773109 3:-0.52316537 
9942.320303046468 1:0.59252562 2:0.42857143 3:-0.5039192 
1095.563317532529 1:0.62989753 2:0.22689076 3:-0.45549548 
32768 1:0.67088608 2:0.14285714 3:-0.42670276 
2499.613394276892 1:0.57926462 2:0.24369748 3:-0.43703794 
3582.923936203229 1:0.63833635 2:0.24369748 3:-0.43522216 
7556.520160031037 1:0.63230862 2:0.12605042 3:-0.43102011 
32768 1:0.67088608 2:-0.025210084 3:-0.43532517 
16837.38704323161 1:0.59493671 2:0.34453782 3:-0.41567136 
32768 1:0.65521398 2:-0.042016807 3:-0.3483635 
3417.181807250005 1:0.62748644 2:0.37815126 3:-0.39358342 
32768 1:0.69379144 2:-0.29411765 3:-0.36631478 
8729.307337038139 1:0.62025316 2:0.21008403 3:-0.36749398 
32768 1:0.68414708 2:-0.2605042 3:-0.29767551 
4459.430289633432 1:0.62266426 2:0.092436975 3:-0.28710216 
3812.079962270737 1:0.62145871 2:0.27731092 3:-0.34065109 
2344.401279432695 1:0.60819771 2:0.27731092 3:-0.28585387 
9376.411361740098 1:0.59493671 2:0.21008403 3:-0.26812177 
2788.483309484636 1:0.62989753 2:0.1092437 3:-0.22295209 
31012.18014876148 1:0.60096444 2:0.14285714 3:-0.20753873 
5537.630628429101 1:0.60940325 2:0.19327731 3:-0.18195515 
32768 1:0.66003617 2:-0.14285714 3:-0.092252782 
8306.829993364358 1:0.67570826 2:-0.29411765 3:-0.036400456 
22371.3542012455 1:0.60337553 2:0.24369748 3:-0.07804733 
32768 1:0.71428571 2:0.19327731 3:-0.89582534 
32768 1:0.6636528 2:-0.57983193 3:-0.8491516 
32768 1:0.72634117 2:-0.0084033613 3:-0.77107809 
32768 1:0.72634117 2:-0.0084033613 3:-0.77107809 
32768 1:0.72634117 2:-0.0084033613 3:-0.77107809 
32768 1:0.72634117 2:-0.0084033613 3:-0.77107809 
32768 1:0.72634117 2:-0.0084033613 3:-0.77107809 
32768 1:0.72875226 2:-0.21008403 3:-0.66872762 
32768 1:0.73116335 2:0.025210084 3:-0.67640322 
32768 1:0.73116335 2:0.025210084 3:-0.67640322 
32768 1:0.67209162 2:-0.91596639 3:-0.77071678 
32768 1:0.69620253 2:-0.4789916 3:-0.77484315 
32768 1:0.73116335 2:0.025210084 3:-0.67640322 
32768 1:0.69620253 2:-0.4789916 3:-0.77484315 
32768 1:0.69499699 2:-0.42857143 3:-0.69988478 
32768 1:0.69138035 2:-0.41176471 3:-0.71042331 
32768 1:0.73116335 2:-0.14285714 3:-0.5835591 
32768 1:0.72272453 2:-0.27731092 3:-0.60664799 
32768 1:0.70825799 2:-0.44537815 3:-0.70244326 
32768 1:0.73839662 2:-0.075630252 3:-0.58783764 
32768 1:0.73839662 2:-0.075630252 3:-0.58783764 
32768 1:0.73839662 2:-0.075630252 3:-0.58783764 
32768 1:0.73839662 2:-0.075630252 3:-0.58783764 
32768 1:0.59252562 2:-0.61344538 3:-0.66256784 
32768 1:0.71308017 2:-0.27731092 3:-0.5525305 
32768 1:0.71308017 2:-0.27731092 3:-0.5525305 
32768 1:0.73839662 2:-0.2605042 3:-0.50309041 
32768 1:0.70102471 2:-0.41176471 3:-0.64385084 
32768 1:0.69499699 2:-0.83193277 3:-0.63686728 
32768 1:0.73839662 2:-0.2605042 3:-0.50309041 
32768 1:0.73839662 2:-0.2605042 3:-0.50309041 
32768 1:0.71308017 2:-0.27731092 3:-0.5525305 
32768 1:0.69499699 2:-0.83193277 3:-0.63686728 
32768 1:0.59493671 2:-0.83193277 3:-0.4771887 
32768 1:0.59373116 2:-0.78151261 3:-0.54383375 
32768 1:0.71790235 2:-0.22689076 3:-0.48572743 
32768 1:0.70102471 2:-0.8487395 3:-0.57661693 
32768 1:0.72754671 2:-0.2605042 3:-0.45423603 
32768 1:0.71790235 2:-0.22689076 3:-0.48572743 
32768 1:0.72754671 2:-0.2605042 3:-0.45423603 
32768 1:0.72754671 2:-0.2605042 3:-0.45423603 
32768 1:0.69620253 2:-0.81512605 3:-0.5189419 
32768 1:0.72393008 2:-0.31092437 3:-0.42126076 
32768 1:0.73357444 2:-0.22689076 3:-0.38881137 
32768 1:0.73357444 2:-0.22689076 3:-0.38881137 
32768 1:0.61301989 2:-0.78151261 3:-0.48499224 
32768 1:0.72393008 2:-0.31092437 3:-0.42126076 
32768 1:0.72393008 2:-0.31092437 3:-0.42126076 
32768 1:0.6925859 2:-0.32773109 3:-0.52306661 
32768 1:0.6925859 2:-0.32773109 3:-0.52306661 
32768 1:0.72393008 2:-0.31092437 3:-0.42126076 
32768 1:0.72995781 2:-0.27731092 3:-0.36301758 
32768 1:0.71549126 2:-0.31092437 3:-0.35666599 
32768 1:0.66847498 2:-1 3:-0.33462763 
32768 1:0.73839662 2:-0.17647059 3:-0.32875569 
32768 1:0.69981917 2:-0.31092437 3:-0.46726727 
32768 1:0.71549126 2:-0.31092437 3:-0.35666599 
32768 1:0.73839662 2:-0.17647059 3:-0.32875569 
32768 1:0.72995781 2:-0.27731092 3:-0.36301758 
32768 1:0.73839662 2:-0.17647059 3:-0.32875569 
32768 1:0.72995781 2:-0.27731092 3:-0.36301758 
32768 1:0.7058469 2:-0.32773109 3:-0.42276472 
32768 1:0.73477999 2:-0.27731092 3:-0.30875224 
32768 1:0.70705244 2:-0.34453782 3:-0.41591642 
32768 1:0.73477999 2:-0.27731092 3:-0.30875224 
32768 1:0.60940325 2:-0.79831933 3:-0.33187836 
32768 1:0.72151899 2:-0.31092437 3:-0.30242103 
32768 1:0.72031344 2:-0.27731092 3:-0.30223084 
32768 1:0.73477999 2:-0.27731092 3:-0.30875224 
32768 1:0.65521398 2:-1 3:-0.27502741 
32768 1:0.73477999 2:-0.27731092 3:-0.30875224 
32768 1:0.71187462 2:-0.32773109 3:-0.37779417 
32768 1:0.72634117 2:-0.27731092 3:-0.25172529 
32768 1:0.7034358 2:-0.56302521 3:-0.36678395 
32768 1:0.69620253 2:-0.73109244 3:-0.36591605 
32768 1:0.64436407 2:-1 3:-0.35631179 
32768 1:0.72634117 2:-0.27731092 3:-0.25172529 
32768 1:0.72634117 2:-0.27731092 3:-0.25172529 
32768 1:0.65521398 2:-0.94957983 3:-0.27730602 
32768 1:0.72634117 2:-0.27731092 3:-0.25172529 
32768 1:0.6901748 2:-0.8487395 3:-0.39740832 
32768 1:0.66485835 2:-0.96638655 3:-0.34281016 
32768 1:0.71549126 2:-0.31092437 3:-0.32941841 
32768 1:0.71549126 2:-0.29411765 3:-0.23106703 
32768 1:0.64556962 2:-0.89915966 3:-0.3178114 
32768 1:0.70705244 2:-0.54621849 3:-0.3259274 
32768 1:0.71790235 2:-0.29411765 3:-0.33543883 
32768 1:0.68053044 2:-0.79831933 3:-0.37461349 
32768 1:0.71549126 2:-0.29411765 3:-0.23106703 
32768 1:0.64315853 2:-0.91596639 3:-0.26957882 
32768 1:0.64798071 2:-0.94957983 3:-0.21611252 
32768 1:0.70825799 2:-0.31092437 3:-0.31845138 
32768 1:0.70825799 2:-0.31092437 3:-0.31845138 
32768 1:0.66968053 2:-1 3:-0.15019399 
32768 1:0.66726944 2:-0.94957983 3:-0.29202204 
32768 1:0.72031344 2:-0.29411765 3:-0.28913402 
32768 1:0.7191079 2:-0.31092437 3:-0.24407234 
32768 1:0.7191079 2:-0.31092437 3:-0.24407234 
32768 1:0.68173599 2:-0.78151261 3:-0.32582192 
32768 1:0.70825799 2:-0.31092437 3:-0.31845138 
32768 1:0.71187462 2:-0.31092437 3:-0.27495582 
32768 1:0.67209162 2:-0.98319328 3:-0.26974633 
32768 1:0.71187462 2:-0.31092437 3:-0.2907315 
32768 1:0.71187462 2:-0.31092437 3:-0.2907315 
32768 1:0.71187462 2:-0.31092437 3:-0.2907315 
32768 1:0.71187462 2:-0.31092437 3:-0.2907315 
32768 1:0.64315853 2:-0.93277311 3:-0.25293903 
32768 1:0.71790235 2:-0.29411765 3:-0.23656552 
32768 1:0.6371308 2:-0.86554622 3:-0.13723991 
32768 1:0.71066908 2:-0.31092437 3:-0.2258286 
32768 1:0.64798071 2:-0.96638655 3:-0.20567956 
32768 1:0.71549126 2:-0.31092437 3:-0.24953639 
32768 1:0.69138035 2:-0.74789916 3:-0.25514588 
32768 1:0.71790235 2:-0.32773109 3:-0.25988338 
32768 1:0.64556962 2:-0.8487395 3:-0.096868695 
32768 1:0.71790235 2:-0.32773109 3:-0.25988338 
32768 1:0.71790235 2:-0.32773109 3:-0.25988338 
32768 1:0.71790235 2:-0.32773109 3:-0.25988338 
32768 1:0.71066908 2:-0.31092437 3:-0.2258286 
32768 1:0.65641953 2:0.092436975 3:-0.83023469 
32768 1:0.71187462 2:-0.22689076 3:-0.84417339 
14516.45344374801 1:0.63110307 2:0.56302521 3:-0.80835807 
32768 1:0.55877034 2:-0.1092437 3:-0.84701836 
32768 1:0.71187462 2:-0.22689076 3:-0.84417339 
32768 1:0.65280289 2:-0.21008403 3:-0.69517935 
3414.568076425367 1:0.55033153 2:0.19327731 3:-0.6975943 
32768 1:0.64677517 2:-0.54621849 3:-0.72152756 
32768 1:0.67450271 2:-0.24369748 3:-0.57317166 
32768 1:0.65641953 2:-0.39495798 3:-0.62433134 
32768 1:0.65641953 2:-0.39495798 3:-0.62433134 
5578.53320838815 1:0.62145871 2:0.19327731 3:-0.49292967 
32768 1:0.63954189 2:-0.32773109 3:-0.52052727 
32768 1:0.6636528 2:-0.21008403 3:-0.48017547 
32768 1:0.62989753 2:-0.36134454 3:-0.46334886 
32768 1:0.66847498 2:-0.37815126 3:-0.5186572 
12159.85141745143 1:0.56841471 2:0.21008403 3:-0.484548 
32687.02395255971 1:0.62145871 2:0.19327731 3:-0.49292967 
32768 1:0.65280289 2:-0.32773109 3:-0.42506633 
32768 1:0.62145871 2:-0.32773109 3:-0.40971473 
32768 1:0.62145871 2:-0.32773109 3:-0.40971473 
32768 1:0.70223026 2:-0.15966387 3:-0.38248028 
32768 1:0.65159735 2:-0.31092437 3:-0.41830092 
2.394242663415922 1:0.61422544 2:-0.31092437 3:-0.32317068 
32768 1:0.67088608 2:-0.41176471 3:-0.3359816 
32768 1:0.69620253 2:-0.27731092 3:-0.30010173 
32768 1:0.67209162 2:-0.46218487 3:-0.359109 
32768 1:0.67209162 2:-0.46218487 3:-0.359109 
94.62856226885792 1:0.6769138 2:0.36134454 3:-0.31220797 
32768 1:0.69620253 2:-0.27731092 3:-0.30010173 
239.0097106934693 1:0.63954189 2:0.1092437 3:-0.24676778 
32768 1:0.67329717 2:-0.71428571 3:-0.26712314 
32768 1:0.67329717 2:-0.57983193 3:-0.28993846 
7797.360243150974 1:0.67209162 2:-0.24369748 3:-0.13400145 
32768 1:0.64195298 2:-0.59663866 3:-0.20215589 
32768 1:0.64918626 2:-0.69747899 3:-0.10917205 
32768 1:0.62507535 2:-0.59663866 3:-0.12411478 
32768 1:0.69379144 2:-0.74789916 3:-0.1097113 
32768 1:0.69620253 2:-0.73109244 3:-0.043988806 
32768 1:0.66726944 2:-0.69747899 3:-0.036714636 
32768 1:0.69981917 2:-0.73109244 3:0.018464115 
26802.0683666737 1:0.6371308 2:-0.0084033613 3:0.022643712 
32768 1:0.69981917 2:-0.73109244 3:0.018464115 
32768 1:0.67088608 2:-0.69747899 3:0.030590239 
32768 1:0.69740808 2:-0.73109244 3:0.074053397 
32768 1:0.64315853 2:-0.68067227 3:0.10380346 
32768 1:0.67570826 2:-0.69747899 3:0.089720833 
32768 1:0.6769138 2:-0.69747899 3:0.091062665 
32768 1:0.64074744 2:-0.36134454 3:0.18922841 
32768 1:0.64074744 2:-0.36134454 3:0.18922841 
32768 1:0.64074744 2:-0.36134454 3:0.18922841 
32768 1:0.64315853 2:-0.36134454 3:0.21104646 
32768 1:0.66968053 2:-0.73109244 3:0.18633619 
32768 1:0.50813743 2:0.4789916 3:-0.93845767 
11902.95894926567 1:0.65280289 2:0.46218487 3:-0.9339743 
32768 1:0.65280289 2:0.46218487 3:-0.9339743 
32768 1:0.65280289 2:0.46218487 3:-0.9339743 
32768 1:0.67209162 2:0.22689076 3:-0.84215283 
32768 1:0.58770344 2:-0.042016807 3:-0.81928687 
32768 1:0.67209162 2:0.22689076 3:-0.84215283 
32768 1:0.67209162 2:0.22689076 3:-0.84215283 
17189.97424690354 1:0.47076552 2:0.39495798 3:-0.84104175 
32768 1:0.58770344 2:-0.042016807 3:-0.81928687 
32768 1:0.72393008 2:0.19327731 3:-0.75276869 
32768 1:0.72393008 2:0.19327731 3:-0.75276869 
32768 1:0.72393008 2:0.19327731 3:-0.75276869 
32768 1:0.72393008 2:0.19327731 3:-0.75276869 
32768 1:0.72393008 2:0.19327731 3:-0.75276869 
32768 1:0.72393008 2:0.19327731 3:-0.75276869 
32768 1:0.72393008 2:0.19327731 3:-0.75276869 
32768 1:0.62507535 2:-0.0084033613 3:-0.67205241 
5637.638111102662 1:0.62025316 2:-0.0084033613 3:-0.6537089 
32768 1:0.6769138 2:0.092436975 3:-0.6514959 
9322.914844841516 1:0.63471971 2:0.12605042 3:-0.61440811 
32768 1:0.68896926 2:-0.12605042 3:-0.58346585 
32768 1:0.66244726 2:0.1092437 3:-0.58675928 
6529.855254900082 1:0.64556962 2:0.19327731 3:-0.54776495 
32768 1:0.69138035 2:-0.19327731 3:-0.48166932 
32768 1:0.67450271 2:-0.14285714 3:-0.52303938 
32768 1:0.67450271 2:-0.14285714 3:-0.52303938 
32768 1:0.62989753 2:-0.32773109 3:-0.42831482 
32768 1:0.62145871 2:-0.24369748 3:-0.44502346 
32768 1:0.64436407 2:-0.32773109 3:-0.4280067 
32768 1:0.62989753 2:-0.32773109 3:-0.42831482 
32768 1:0.6106088 2:-0.36134454 3:-0.43351884 
32768 1:0.64315853 2:-0.34453782 3:-0.4546422 
10580.15035372667 1:0.61663653 2:-0.24369748 3:-0.38997747 
32768 1:0.6371308 2:-0.32773109 3:-0.3728751 
32449.15165674127 1:0.62628089 2:-0.22689076 3:-0.37517187 
32768 1:0.6371308 2:-0.32773109 3:-0.3728751 
32768 1:0.63833635 2:-0.32773109 3:-0.32091431 
32768 1:0.64677517 2:-0.46218487 3:-0.33690866 
32768 1:0.62628089 2:-0.39495798 3:-0.32807184 
32768 1:0.6371308 2:-0.41176471 3:-0.27489742 
32768 1:0.61181435 2:-0.36134454 3:-0.21671629 
32768 1:0.66244726 2:-0.49579832 3:-0.2888106 
32768 1:0.60819771 2:-0.19327731 3:-0.17116655 
32768 1:0.66485835 2:-0.49579832 3:-0.24972719 
32768 1:0.63954189 2:-0.68067227 3:-0.15164108 
32768 1:0.64556962 2:-0.71428571 3:-0.15875528 
32768 1:0.62869198 2:-0.4789916 3:-0.15439376 
32768 1:0.68535262 2:-0.32773109 3:-0.1871003 
32768 1:0.74201326 2:0.19327731 3:-0.85353463 
32768 1:0.74201326 2:0.19327731 3:-0.85353463 
32768 1:0.74201326 2:0.19327731 3:-0.85353463 
32768 1:0.74201326 2:0.19327731 3:-0.85353463 
8929.285281668133 1:0.4888487 2:0.59663866 3:-0.85660521 
32768 1:0.61181435 2:0.37815126 3:-0.8588442 
32768 1:0.74201326 2:0.19327731 3:-0.85353463 
32768 1:0.69499699 2:0.31092437 3:-0.8478412 
32768 1:0.74201326 2:0.19327731 3:-0.85353463 
32768 1:0.68294153 2:0.1092437 3:-0.73101955 
32768 1:0.68294153 2:0.1092437 3:-0.73101955 
32768 1:0.68294153 2:0.1092437 3:-0.73101955 
32768 1:0.68294153 2:0.1092437 3:-0.73101955 
32768 1:0.68294153 2:0.1092437 3:-0.73101955 
32768 1:0.68294153 2:0.1092437 3:-0.73101955 
32768 1:0.68294153 2:0.1092437 3:-0.73101955 
32768 1:0.68294153 2:0.1092437 3:-0.73101955 
32768 1:0.68294153 2:0.1092437 3:-0.73101955 
9440.762676535367 1:0.61543098 2:0.39495798 3:-0.62647452 
4596.603638404134 1:0.58167571 2:0.46218487 3:-0.54021374 
18376.8874962505 1:0.5973478 2:0.44537815 3:-0.87639444 
32715.1509248278 1:0.5973478 2:0.44537815 3:-0.87639444 
4865.489742032889 1:0.55153707 2:0.51260504 3:-0.77037285 
5509.78751260671 1:0.60337553 2:0.52941176 3:-0.81646987 
26332.41611294813 1:0.68535262 2:0.51260504 3:-0.83543744 
17924.01052411749 1:0.65159735 2:0.51260504 3:-0.80888669 
31609.42806376129 1:0.56479807 2:0.39495798 3:-0.72017389 
2446.792041729728 1:0.55997589 2:0.41176471 3:-0.69893951 
18708.29357265595 1:0.5708258 2:0.41176471 3:-0.60449092 
23250.10189827577 1:0.5177818 2:0.39495798 3:-0.48262137 
22056.17672352735 1:0.52139843 2:0.36134454 3:-0.4938848 
32768 1:0.54792043 2:0.36134454 3:-0.39835333 
28866.26172753591 1:0.51295961 2:0.36134454 3:-0.39226122 
32768 1:0.54792043 2:0.36134454 3:-0.39835333 
3915.962306633596 1:0.53827607 2:0.2605042 3:-0.30456484 
4776.533315533228 1:0.5045208 2:0.29411765 3:-0.14576853 
18127.4115301296 1:0.48643761 2:0.27731092 3:-0.072461873 
21753.19501128354 1:0.49728752 2:0.19327731 3:-0.022167919 
21537.03305038944 1:0.48282098 2:0.21008403 3:0.03809217 
692.3809817679487 1:0.40446052 2:0.51260504 3:-0.80365269 
32768 1:0.67088608 2:0.32773109 3:-0.84764314 
32768 1:0.71669681 2:-0.17647059 3:-0.74556749 
32768 1:0.71669681 2:-0.17647059 3:-0.74556749 
32768 1:0.6901748 2:-0.17647059 3:-0.71858917 
32768 1:0.70102471 2:-0.19327731 3:-0.7256577 
32768 1:0.66968053 2:-0.17647059 3:-0.71916629 
32768 1:0.68294153 2:0.025210084 3:-0.72468352 
32768 1:0.70102471 2:-0.19327731 3:-0.7256577 
32768 1:0.70102471 2:-0.19327731 3:-0.7256577 
32768 1:0.66968053 2:-0.17647059 3:-0.60716527 
32768 1:0.67209162 2:-0.092436975 3:-0.61349477 
32768 1:0.68776371 2:-0.058823529 3:-0.61180477 
32768 1:0.66968053 2:-0.17647059 3:-0.60716527 
32768 1:0.69620253 2:-0.042016807 3:-0.61188644 
32768 1:0.66968053 2:-0.17647059 3:-0.60716527 
32768 1:0.66968053 2:-0.17647059 3:-0.60716527 
32768 1:0.69740808 2:-0.15966387 3:-0.64179428 
32768 1:0.69740808 2:-0.15966387 3:-0.64179428 
32768 1:0.69620253 2:-0.042016807 3:-0.61188644 
32768 1:0.66244726 2:-0.19327731 3:-0.50584072 
32768 1:0.69138035 2:-0.29411765 3:-0.54032644 
32768 1:0.68294153 2:-0.19327731 3:-0.50817711 
32768 1:0.69138035 2:-0.29411765 3:-0.54032644 
32768 1:0.68294153 2:-0.19327731 3:-0.50817711 
32768 1:0.68294153 2:-0.27731092 3:-0.50409048 
32768 1:0.69740808 2:-0.22689076 3:-0.50466459 
32768 1:0.68776371 2:-0.092436975 3:-0.47501767 
32768 1:0.68655817 2:-0.19327731 3:-0.45784278 
32768 1:0.68776371 2:-0.092436975 3:-0.47501767 
32768 1:0.68655817 2:-0.19327731 3:-0.41219533 
32768 1:0.66244726 2:-0.41176471 3:-0.41762458 
32768 1:0.66244726 2:-0.41176471 3:-0.41762458 
32768 1:0.66244726 2:-0.41176471 3:-0.41762458 
32768 1:0.68776371 2:-0.092436975 3:-0.47501767 
32768 1:0.68655817 2:-0.19327731 3:-0.41219533 
32768 1:0.68294153 2:-0.1092437 3:-0.32949251 
32768 1:0.69379144 2:-0.19327731 3:-0.38207392 
32768 1:0.68776371 2:-0.52941176 3:-0.36760585 
32768 1:0.66485835 2:-0.4789916 3:-0.33274808 
32768 1:0.68535262 2:-0.19327731 3:-0.38111473 
32768 1:0.63230862 2:-0.81512605 3:-0.35761147 
32768 1:0.6503918 2:-0.68067227 3:-0.35632299 
32768 1:0.66485835 2:-0.4789916 3:-0.33274808 
32768 1:0.66968053 2:-0.46218487 3:-0.24771706 
32768 1:0.63954189 2:-0.81512605 3:-0.2704466 
32768 1:0.68173599 2:-0.17647059 3:-0.31062818 
32768 1:0.66244726 2:-0.4789916 3:-0.25134578 
32768 1:0.66244726 2:-0.4789916 3:-0.25181103 
32768 1:0.67450271 2:-0.17647059 3:-0.30948531 
32768 1:0.63954189 2:-0.81512605 3:-0.2704466 
32768 1:0.67450271 2:-0.17647059 3:-0.30948531 
32768 1:0.68173599 2:-0.41176471 3:-0.24533611 
32768 1:0.65159735 2:-0.68067227 3:-0.28010815 
32768 1:0.67088608 2:-0.51260504 3:-0.16969313 
32768 1:0.66847498 2:-0.46218487 3:-0.17430436 
32768 1:0.66847498 2:-0.46218487 3:-0.17430436 
32768 1:0.6769138 2:-0.56302521 3:-0.22485857 
32768 1:0.68776371 2:-0.52941176 3:-0.23233939 
32768 1:0.64315853 2:-0.76470588 3:-0.19710837 
32768 1:0.68776371 2:-0.52941176 3:-0.23233939 
32768 1:0.6769138 2:-0.56302521 3:-0.22485857 
32768 1:0.64556962 2:-0.71428571 3:-0.2085785 
32768 1:0.66003617 2:-0.4789916 3:-0.17721892 
32768 1:0.65400844 2:-0.4789916 3:-0.11016141 
32768 1:0.66726944 2:-0.46218487 3:-0.10564607 
32768 1:0.64918626 2:-0.78151261 3:-0.14277216 
32768 1:0.66124171 2:-0.49579832 3:-0.10140821 
32768 1:0.63833635 2:-0.8487395 3:-0.12813881 
32768 1:0.63833635 2:-0.8487395 3:-0.12813881 
32768 1:0.63833635 2:-0.8487395 3:-0.12813881 
32768 1:0.63833635 2:-0.8487395 3:-0.12813881 
32768 1:0.68173599 2:-0.61344538 3:-0.15451991 
32768 1:0.68535262 2:-0.56302521 3:-0.1580125 
32768 1:0.68655817 2:-0.57983193 3:-0.089624431 
32768 1:0.66003617 2:-0.49579832 3:-0.037509239 
32768 1:0.66003617 2:-0.49579832 3:-0.037509239 
32768 1:0.66003617 2:-0.49579832 3:-0.037509239 
4890.40037095818 1:0.63954189 2:-0.83193277 3:-0.057503568 
32768 1:0.67209162 2:-0.49579832 3:-0.10078101 
32768 1:0.66003617 2:-0.49579832 3:-0.037509239 
11574.77708924585 1:0.64195298 2:-0.8487395 3:-0.064852176 
32768 1:0.66003617 2:-0.49579832 3:-0.037509239 
32768 1:0.67088608 2:-0.54621849 3:-0.031672886 
32768 1:0.67811935 2:-0.52941176 3:-0.048121714 
32768 1:0.66003617 2:-0.49579832 3:0.021685087 
32768 1:0.65883062 2:-0.46218487 3:0.016874026 
32768 1:0.6503918 2:-0.71428571 3:-0.012295721 
32768 1:0.65521398 2:-0.44537815 3:0.026173046 
32768 1:0.65521398 2:-0.44537815 3:0.026173046 
32768 1:0.66003617 2:-0.49579832 3:0.021685087 
32768 1:0.65400844 2:-0.49579832 3:0.076806718 
32768 1:0.64436407 2:-0.8487395 3:0.062434537 
32768 1:0.6503918 2:-0.71428571 3:0.04415343 
32768 1:0.67932489 2:-0.54621849 3:0.025034616 
32768 1:0.65521398 2:-0.46218487 3:0.082897429 
32768 1:0.67932489 2:-0.54621849 3:0.025034616 
32768 1:0.64436407 2:-0.8487395 3:0.062434537 
32768 1:0.65400844 2:-0.49579832 3:0.076234809 
32768 1:0.64436407 2:-0.8487395 3:0.062434537 
32768 1:0.65521398 2:-0.46218487 3:0.082897429 
32768 1:0.65400844 2:-0.49579832 3:0.12842022 
32768 1:0.65883062 2:-0.46218487 3:0.13808831 
32768 1:0.64556962 2:-0.8487395 3:0.11464704 
32768 1:0.64556962 2:-0.8487395 3:0.11464704 
32768 1:0.65400844 2:-0.49579832 3:0.12842022 
32768 1:0.66847498 2:-0.51260504 3:0.054620982 
32768 1:0.67811935 2:-0.52941176 3:0.076987735 
32768 1:0.65400844 2:-0.49579832 3:0.12842022 
32768 1:0.64918626 2:-0.69747899 3:0.095181563 
32768 1:0.65883062 2:-0.46218487 3:0.13808831 
32768 1:0.67088608 2:-0.56302521 3:0.11491777 
32768 1:0.6769138 2:-0.56302521 3:0.13388169 
32768 1:0.64798071 2:-0.8487395 3:0.16742186 
32768 1:0.65641953 2:-0.51260504 3:0.17803137 
32768 1:0.6769138 2:-0.56302521 3:0.13388169 
32768 1:0.64556962 2:-0.8487395 3:0.16576233 
32768 1:0.65521398 2:-0.4789916 3:0.19369914 
32768 1:0.67088608 2:-0.56302521 3:0.11491777 
32768 1:0.64556962 2:-0.8487395 3:0.16576233 
32768 1:0.64556962 2:-0.8487395 3:0.16576233 
1572.003675343626 1:0.51898734 2:0.17647059 3:-0.74897561 
32768 1:0.42013261 2:0.29411765 3:-0.4408059 
20916.54064462109 1:0.50813743 2:0.0084033613 3:-0.42913573 
32768 1:0.50813743 2:0.0084033613 3:-0.42913573 
32768 1:0.45027125 2:0.15966387 3:-0.2992283 
1000.282644144795 1:0.44424352 2:0.14285714 3:-0.22517531 
14906.40929989012 1:0.44424352 2:0.14285714 3:-0.22517531 
5542.942212089441 1:0.5177818 2:-0.15966387 3:-0.21585988 
16070.23068271399 1:0.50693189 2:-0.27731092 3:-0.01009171 
32768 1:0.55635925 2:-0.27731092 3:-0.91996804 
32768 1:0.57444244 2:-0.1092437 3:-0.92165714 
32768 1:0.61784207 2:0.075630252 3:-0.91192739 
19165.81284147647 1:0.57805907 2:0.042016807 3:-0.89862006 
4415.7915564487 1:0.59493671 2:0.52941176 3:-0.89196118 
32768 1:0.57444244 2:-0.1092437 3:-0.92165714 
32768 1:0.57805907 2:0.042016807 3:-0.89862006 
32768 1:0.65641953 2:0.2605042 3:-0.93262089 
32768 1:0.61784207 2:0.075630252 3:-0.91192739 
32768 1:0.64074744 2:-0.24369748 3:-0.79499898 
32768 1:0.64436407 2:-0.46218487 3:-0.79284789 
32768 1:0.7034358 2:-0.092436975 3:-0.82890325 
32768 1:0.62869198 2:-0.24369748 3:-0.8285927 
2395.597014254774 1:0.52742616 2:0.17647059 3:-0.79644363 
32768 1:0.67811935 2:-0.15966387 3:-0.80639905 
32768 1:0.59975889 2:0.0084033613 3:-0.80771492 
32768 1:0.62025316 2:-0.34453782 3:-0.80790886 
32768 1:0.64074744 2:-0.24369748 3:-0.79499898 
15838.56305079341 1:0.58649789 2:-0.058823529 3:-0.7043068 
32768 1:0.60699216 2:-0.46218487 3:-0.72747407 
32768 1:0.58649789 2:-0.058823529 3:-0.7043068 
1544.582751714669 1:0.58649789 2:0.042016807 3:-0.73065208 
32768 1:0.58649789 2:-0.058823529 3:-0.7043068 
32768 1:0.58649789 2:-0.058823529 3:-0.7043068 
32768 1:0.58649789 2:-0.058823529 3:-0.7043068 
1478.525801732698 1:0.58288125 2:0.31092437 3:-0.67006568 
32768 1:0.6925859 2:-0.19327731 3:-0.63175333 
32768 1:0.63954189 2:-0.39495798 3:-0.68904617 
32768 1:0.75045208 2:-0.32773109 3:-0.64297331 
32768 1:0.7058469 2:-0.12605042 3:-0.64063556 
32768 1:0.68294153 2:-0.21008403 3:-0.65441612 
9261.531363796621 1:0.58288125 2:0.32773109 3:-0.60724717 
32768 1:0.66124171 2:-0.15966387 3:-0.5440863 
32768 1:0.67811935 2:-0.49579832 3:-0.60352446 
32768 1:0.68535262 2:-0.41176471 3:-0.58340986 
32768 1:0.66124171 2:-0.34453782 3:-0.56811262 
32768 1:0.63471971 2:-0.21008403 3:-0.54808284 
32768 1:0.66124171 2:-0.15966387 3:-0.5440863 
32768 1:0.65400844 2:-0.34453782 3:-0.49444991 
2231.665602172328 1:0.5840868 2:0.31092437 3:-0.54370035 
32768 1:0.66847498 2:-0.42857143 3:-0.52439557 
32768 1:0.65400844 2:-0.34453782 3:-0.49444991 
32768 1:0.68776371 2:-0.46218487 3:-0.4622234 
32768 1:0.68053044 2:-0.46218487 3:-0.41617626 
32768 1:0.70946353 2:-0.4789916 3:-0.42281903 
3352.582054225794 1:0.59252562 2:0.15966387 3:-0.4852523 
32768 1:0.68776371 2:-0.31092437 3:-0.42747029 
32768 1:0.67570826 2:-0.42857143 3:-0.37471011 
32768 1:0.67088608 2:-0.56302521 3:-0.37472664 
32768 1:0.67209162 2:-0.42857143 3:-0.37089759 
32768 1:0.68294153 2:-0.44537815 3:-0.32426957 
32768 1:0.68294153 2:-0.44537815 3:-0.32426957 
17410.05428446618 1:0.58167571 2:0.32773109 3:-0.38833714 
32768 1:0.69379144 2:-0.51260504 3:-0.27918181 
32768 1:0.65159735 2:-0.075630252 3:-0.30032115 
32768 1:0.58167571 2:0.32773109 3:-0.38833714 
32768 1:0.67570826 2:-0.46218487 3:-0.26035259 
6116.757549352238 1:0.68294153 2:-0.2605042 3:-0.2377963 
32768 1:0.67570826 2:-0.46218487 3:-0.26035259 
32768 1:0.67570826 2:-0.46218487 3:-0.26035259 
32768 1:0.66485835 2:-0.59663866 3:-0.24924962 
3890.228161249637 1:0.58890898 2:0.21008403 3:-0.34476581 
26361.75044415428 1:0.58890898 2:0.32773109 3:-0.301521 
32768 1:0.66124171 2:-0.59663866 3:-0.18772214 
6167.780511658556 1:0.58770344 2:0.21008403 3:-0.30455283 
32768 1:0.65641953 2:-0.56302521 3:-0.17853654 
32768 1:0.68414708 2:-0.31092437 3:-0.17856538 
32768 1:0.69861362 2:-0.46218487 3:-0.1186487 
32768 1:0.70223026 2:-0.51260504 3:-0.10625388 
32768 1:0.7058469 2:-0.49579832 3:-0.11484046 
32768 1:0.69138035 2:-0.52941176 3:-0.096556572 
32768 1:0.69499699 2:-0.51260504 3:-0.050325175 
32768 1:0.66968053 2:-0.6302521 3:-0.089806547 
65.45359523273714 1:0.59132007 2:0.22689076 3:-0.22970163 
32768 1:0.68414708 2:-0.61344538 3:-0.033868834 
32768 1:0.68414708 2:-0.61344538 3:-0.033868834 
30352.44142929287 1:0.53224834 2:0.42857143 3:-0.85190895 
1526.441262082838 1:0.5045208 2:0.51260504 3:-0.85276042 
32768 1:0.65883062 2:0.4789916 3:-0.84978689 
32768 1:0.64074744 2:0.4789916 3:-0.73525756 
11877.25141169001 1:0.48282098 2:0.49579832 3:-0.80594527 
32768 1:0.61301989 2:0.51260504 3:-0.74215407 
939.9962264635096 1:0.49608198 2:0.058823529 3:-0.75790468 
13854.15999173412 1:0.48643761 2:0.49579832 3:-0.8080563 
12139.69358281494 1:0.52260398 2:0.15966387 3:-0.65390541 
18427.02742505808 1:0.48764316 2:0.092436975 3:-0.66257829 
17258.82251745925 1:0.58770344 2:0.42857143 3:-0.64241065 
32768 1:0.48764316 2:0.092436975 3:-0.66257829 
1678.184012900208 1:0.58047016 2:0.24369748 3:-0.65714373 
81.01188047032798 1:0.54189271 2:0.29411765 3:-0.65076567 
363.8500340566367 1:0.53948162 2:0.15966387 3:-0.56242811 
3145.101823994896 1:0.50572634 2:0.39495798 3:-0.64661047 
32768 1:0.72393008 2:0.058823529 3:-0.47330638 
25340.40109756869 1:0.50331525 2:-0.025210084 3:-0.47921699 
24770.26490105636 1:0.55274262 2:0.21008403 3:-0.47272597 
9913.91606539603 1:0.55274262 2:0.31092437 3:-0.58263402 
1766.909850437231 1:0.53948162 2:0.092436975 3:-0.39925976 
2559.917041249707 1:0.55997589 2:0.1092437 3:-0.28142151 
32768 1:0.67811935 2:-0.37815126 3:-0.49321698 
8284.584266718446 1:0.56479807 2:0.14285714 3:-0.20429034 
32768 1:0.63592526 2:-0.39495798 3:-0.36772849 
17871.53178556386 1:0.57203134 2:0.15966387 3:-0.15208124 
32768 1:0.6371308 2:-0.39495798 3:-0.31378699 
32768 1:0.63592526 2:-0.39495798 3:-0.21242993 
32768 1:0.62869198 2:-0.46218487 3:-0.16768331 
32768 1:0.62869198 2:-0.46218487 3:-0.16768331 
32768 1:0.62869198 2:-0.46218487 3:-0.16768331 
29366.2478921519 1:0.57926462 2:0.0084033613 3:0.010126424 
28418.19973757984 1:0.56238698 2:-0.042016807 3:0.0076025038 
32768 1:0.62748644 2:-0.44537815 3:-0.12561534 
32768 1:0.62748644 2:-0.44537815 3:-0.12561534 
32768 1:0.62748644 2:-0.44537815 3:-0.12561534 
32768 1:0.70223026 2:0.24369748 3:-0.6432253 
32768 1:0.76009644 2:0.21008403 3:-0.6492297 
32768 1:0.76009644 2:0.21008403 3:-0.6492297 
32768 1:0.74321881 2:0.15966387 3:-0.45909532 
32768 1:0.74321881 2:0.15966387 3:-0.45909532 
32768 1:0.74321881 2:0.15966387 3:-0.45909532 
32768 1:0.74321881 2:0.15966387 3:-0.45909532 
32768 1:0.72272453 2:-0.21008403 3:-0.50212591 
32054.991957575 1:0.67811935 2:0.64705882 3:-0.94589618 
32768 1:0.67811935 2:0.64705882 3:-0.94589618 
31499.19909764394 1:0.61663653 2:0.4789916 3:-0.93904963 
32768 1:0.73839662 2:0.31092437 3:-0.9542311 
32768 1:0.64195298 2:0.42857143 3:-0.84966592 
32768 1:0.77456299 2:0.57983193 3:-0.85991675 
32768 1:0.76130199 2:0.52941176 3:-0.86453414 
32768 1:0.67329717 2:0.22689076 3:-0.80371197 
32768 1:0.67209162 2:0.42857143 3:-0.84943797 
32768 1:0.67329717 2:0.22689076 3:-0.80371197 
32768 1:0.82037372 2:0.22689076 3:-0.84556226 
32768 1:0.67329717 2:0.22689076 3:-0.80371197 
32768 1:0.77456299 2:0.57983193 3:-0.85991675 
32768 1:0.70946353 2:0.27731092 3:-0.86255216 
32768 1:0.75286317 2:0.22689076 3:-0.77386266 
14548.11276662419 1:0.75647981 2:0.49579832 3:-0.78744309 
32768 1:0.75768535 2:0.52941176 3:-0.79184766 
15132.2272361647 1:0.64556962 2:0.32773109 3:-0.76329143 
6963.953898132229 1:0.5973478 2:0.1092437 3:-0.70077652 
30503.79854339339 1:0.75647981 2:0.49579832 3:-0.78744309 
32768 1:0.75768535 2:0.52941176 3:-0.79184766 
32768 1:0.75768535 2:0.52941176 3:-0.79184766 
14615.60386935159 1:0.72031344 2:0.42857143 3:-0.71476705 
32768 1:0.75647981 2:0.14285714 3:-0.70622853 
32768 1:0.75045208 2:0.17647059 3:-0.67664233 
32768 1:0.75647981 2:0.14285714 3:-0.70622853 
32768 1:0.7456299 2:0.4789916 3:-0.71393386 
32768 1:0.68655817 2:-0.025210084 3:-0.63809681 
32768 1:0.69620253 2:0.12605042 3:-0.65599755 
32768 1:0.7456299 2:0.4789916 3:-0.71393386 
29336.96489170553 1:0.67209162 2:0.34453782 3:-0.63655344 
20778.65772623395 1:0.66726944 2:0.27731092 3:-0.63029968 
32768 1:0.69138035 2:0.17647059 3:-0.58560969 
32768 1:0.74924653 2:0.49579832 3:-0.6517366 
32768 1:0.7456299 2:0.49579832 3:-0.65635329 
32768 1:0.72151899 2:0.19327731 3:-0.60968981 
32768 1:0.74924653 2:0.49579832 3:-0.6517366 
32768 1:0.75647981 2:0.15966387 3:-0.63124584 
32768 1:0.69138035 2:0.17647059 3:-0.58560969 
32768 1:0.6901748 2:0.37815126 3:-0.57819514 
19189.08736709476 1:0.68655817 2:0.32773109 3:-0.58009407 
5689.247246993128 1:0.64436407 2:0.19327731 3:-0.56061582 
32768 1:0.71066908 2:0.15966387 3:-0.54117895 
32768 1:0.67329717 2:0.2605042 3:-0.57397563 
32768 1:0.72513562 2:0.44537815 3:-0.59255015 
32768 1:0.72151899 2:0.12605042 3:-0.56623657 
32768 1:0.68655817 2:0.092436975 3:-0.50721563 
32768 1:0.70102471 2:0.36134454 3:-0.52588968 
32768 1:0.72754671 2:0.44537815 3:-0.53840882 
32768 1:0.75045208 2:0.19327731 3:-0.48681842 
738.0445614136258 1:0.61181435 2:0.15966387 3:-0.48401048 
32768 1:0.72754671 2:0.44537815 3:-0.53840882 
32768 1:0.70102471 2:0.36134454 3:-0.52588968 
32768 1:0.69740808 2:0.12605042 3:-0.48459939 
32768 1:0.7191079 2:0.37815126 3:-0.47798889 
32768 1:0.74321881 2:0.21008403 3:-0.43273706 
32768 1:0.67088608 2:-0.058823529 3:-0.3639583 
32768 1:0.7034358 2:0.092436975 3:-0.44404693 
32768 1:0.67088608 2:-0.22689076 3:-0.35343447 
32768 1:0.7058469 2:0.042016807 3:-0.36591437 
32768 1:0.65762508 2:0.1092437 3:-0.39839738 
32768 1:0.67450271 2:0.14285714 3:-0.40623879 
2034.477298847571 1:0.72634117 2:0.37815126 3:-0.42292707 
32768 1:0.70223026 2:0.075630252 3:-0.38661043 
32768 1:0.66124171 2:0.042016807 3:-0.26591599 
8012.33938578431 1:0.70464135 2:0.24369748 3:-0.37111262 
32768 1:0.7191079 2:0.14285714 3:-0.31568034 
32768 1:0.64918626 2:0.058823529 3:-0.31733714 
32768 1:0.67570826 2:0.025210084 3:-0.26306189 
32768 1:0.68896926 2:0.092436975 3:-0.33739597 
8075.631867012386 1:0.71187462 2:0.37815126 3:-0.37379497 
32768 1:0.66968053 2:-0.14285714 3:-0.25194272 
32768 1:0.68294153 2:0.075630252 3:-0.29139958 
32768 1:0.68655817 2:0.092436975 3:-0.28952872 
32768 1:0.66968053 2:0.0084033613 3:-0.25049625 
32768 1:0.72995781 2:0.058823529 3:-0.25779432 
32768 1:0.64436407 2:0.14285714 3:-0.27664172 
32768 1:0.65641953 2:0.025210084 3:-0.21296056 
32768 1:0.70946353 2:0.12605042 3:-0.26694774 
32768 1:0.64918626 2:0.1092437 3:-0.23843225 
32768 1:0.65883062 2:0.1092437 3:-0.24831042 
32768 1:0.67209162 2:-0.12605042 3:-0.14293227 
32768 1:0.66726944 2:0.025210084 3:-0.19143438 
32768 1:0.70825799 2:0.15966387 3:-0.2188407 
1997.115863513432 1:0.65521398 2:0.042016807 3:-0.15019325 
32768 1:0.65521398 2:-0.12605042 3:-0.08991419 
32768 1:0.6636528 2:0.0084033613 3:-0.17884963 
32768 1:0.67570826 2:0.025210084 3:-0.20599515 
32768 1:0.65883062 2:0.025210084 3:-0.19715191 
32768 1:0.71066908 2:0.075630252 3:-0.17279541 
32768 1:0.67570826 2:0.025210084 3:-0.20599515 
32768 1:0.66485835 2:0.075630252 3:-0.19785939 
32768 1:0.69499699 2:0.042016807 3:-0.10709495 
32768 1:0.67329717 2:0.025210084 3:-0.10504632 
32768 1:0.66726944 2:0.12605042 3:-0.16595967 
32768 1:0.67450271 2:0.025210084 3:-0.16556548 
3091.048186499736 1:0.4755877 2:0.092436975 3:-0.81488709 
32768 1:0.74924653 2:0.0084033613 3:-0.90270773 
32768 1:0.7986739 2:0.54621849 3:-0.91283273 
32768 1:0.83242917 2:-0.0084033613 3:-0.88763959 
32768 1:0.79144063 2:0.21008403 3:-0.89742899 
32768 1:0.7986739 2:0.54621849 3:-0.91283273 
32768 1:0.74924653 2:0.0084033613 3:-0.90270773 
32768 1:0.74924653 2:0.0084033613 3:-0.90270773 
32768 1:0.83242917 2:-0.0084033613 3:-0.88763959 
32768 1:0.79144063 2:-0.29411765 3:-0.78459271 
32768 1:0.75527426 2:0.042016807 3:-0.78798814 
32768 1:0.9047619 2:0.57983193 3:-0.78857806 
12192.71035827236 1:0.893912 2:0.56302521 3:-0.78857806 
32768 1:0.82399036 2:0.17647059 3:-0.80446097 
32768 1:0.78782399 2:-0.025210084 3:-0.80585489 
32768 1:0.75527426 2:0.042016807 3:-0.78798814 
32768 1:0.84930681 2:0.56302521 3:-0.77649286 
32768 1:0.83122363 2:0.32773109 3:-0.77608327 
32768 1:0.82760699 2:-0.092436975 3:-0.81957237 
32768 1:0.80349608 2:0.21008403 3:-0.68874504 
32768 1:0.7986739 2:-0.21008403 3:-0.74172612 
32768 1:0.81555154 2:0.058823529 3:-0.71939778 
32768 1:0.81555154 2:0.058823529 3:-0.71939778 
32768 1:0.7986739 2:-0.21008403 3:-0.74172612 
32768 1:0.79505726 2:-0.058823529 3:-0.70960172 
32768 1:0.7986739 2:-0.21008403 3:-0.74172612 
32768 1:0.79385172 2:-0.15966387 3:-0.64702211 
32768 1:0.79385172 2:-0.15966387 3:-0.64702211 
32768 1:0.79746835 2:0.042016807 3:-0.60684551 
32768 1:0.79385172 2:-0.15966387 3:-0.64702211 
32768 1:0.79385172 2:-0.15966387 3:-0.64702211 
32768 1:0.87462327 2:0.4789916 3:-0.60227605 
32768 1:0.79385172 2:-0.15966387 3:-0.64702211 
32768 1:0.80952381 2:0.15966387 3:-0.60423485 
32768 1:0.7721519 2:-0.22689076 3:-0.62130987 
32768 1:0.79023508 2:-0.4789916 3:-0.56530245 
32768 1:0.79023508 2:-0.4789916 3:-0.56530245 
32768 1:0.87703436 2:0.34453782 3:-0.52349538 
32768 1:0.79023508 2:-0.4789916 3:-0.56530245 
32768 1:0.80590717 2:-0.32773109 3:-0.53737293 
32768 1:0.79023508 2:-0.4789916 3:-0.56530245 
32768 1:0.79023508 2:-0.4789916 3:-0.56530245 
32768 1:0.79023508 2:-0.4789916 3:-0.56530245 
32768 1:0.80711272 2:-0.36134454 3:-0.54671908 
32768 1:0.80349608 2:-0.042016807 3:-0.44893132 
32768 1:0.81314045 2:-0.075630252 3:-0.45352828 
32768 1:0.79023508 2:-0.49579832 3:-0.4685535 
32768 1:0.80349608 2:-0.042016807 3:-0.44893132 
32768 1:0.82881254 2:-0.34453782 3:-0.46472197 
32768 1:0.81314045 2:-0.075630252 3:-0.45352828 
27315.82214721018 1:0.88788427 2:0.46218487 3:-0.47295679 
19519.71695323102 1:0.89270645 2:0.4789916 3:-0.47786612 
32768 1:0.79385172 2:-0.51260504 3:-0.48446233 
5909.960246885969 1:0.86980108 2:0.36134454 3:-0.4031739 
13185.54112240879 1:0.89511754 2:0.46218487 3:-0.40716637 
32768 1:0.77938517 2:-0.6302521 3:-0.41009105 
32768 1:0.82399036 2:-0.32773109 3:-0.38126622 
32768 1:0.83484027 2:-0.49579832 3:-0.3884836 
32768 1:0.77938517 2:-0.6302521 3:-0.41009105 
32768 1:0.77938517 2:-0.6302521 3:-0.41009105 
32768 1:0.82399036 2:-0.32773109 3:-0.38126622 
32768 1:0.77938517 2:-0.6302521 3:-0.41009105 
32768 1:0.77938517 2:-0.6302521 3:-0.41009105 
28498.0205496687 1:0.88065099 2:0.42857143 3:-0.34251936 
26631.9113919485 1:0.84689572 2:0.27731092 3:-0.33167746 
32768 1:0.80108499 2:-0.68067227 3:-0.33547669 
32768 1:0.88065099 2:0.42857143 3:-0.34251936 
32768 1:0.80108499 2:-0.68067227 3:-0.33547669 
32768 1:0.80108499 2:-0.68067227 3:-0.33547669 
32768 1:0.80108499 2:-0.68067227 3:-0.33547669 
32768 1:0.84086799 2:-0.32773109 3:-0.3136097 
32768 1:0.80108499 2:-0.68067227 3:-0.33547669 
32768 1:0.80108499 2:-0.68067227 3:-0.33547669 
32768 1:0.81796263 2:-0.66386555 3:-0.27187122 
32768 1:0.81796263 2:-0.66386555 3:-0.27187122 
32768 1:0.81796263 2:-0.66386555 3:-0.27187122 
32768 1:0.81796263 2:-0.66386555 3:-0.27187122 
32768 1:0.84086799 2:-0.31092437 3:-0.25495696 
32768 1:0.81796263 2:-0.66386555 3:-0.27187122 
32768 1:0.83363472 2:-0.37815126 3:-0.28697152 
32768 1:0.8251959 2:-0.66386555 3:-0.20986285 
32768 1:0.85292345 2:-0.29411765 3:-0.19759114 
32768 1:0.83484027 2:-0.27731092 3:-0.20295648 
32768 1:0.84327908 2:-0.29411765 3:-0.19990592 
32768 1:0.81072936 2:-0.64705882 3:-0.21166862 
32768 1:0.83484027 2:-0.27731092 3:-0.20853988 
32768 1:0.83484027 2:-0.36134454 3:-0.2338506 
32768 1:0.81796263 2:-0.64705882 3:-0.153563 
32768 1:0.81796263 2:-0.64705882 3:-0.153563 
32768 1:0.83363472 2:-0.44537815 3:-0.16829617 
32768 1:0.81796263 2:-0.64705882 3:-0.153563 
32768 1:0.81796263 2:-0.64705882 3:-0.153563 
32768 1:0.81796263 2:-0.64705882 3:-0.153563 
32768 1:0.81796263 2:-0.66386555 3:-0.15917786 
32768 1:0.83363472 2:-0.59663866 3:-0.15129903 
32768 1:0.82399036 2:-0.64705882 3:-0.10440645 
32768 1:0.82399036 2:-0.64705882 3:-0.10440645 
32768 1:0.83363472 2:-0.29411765 3:-0.092160908 
32768 1:0.83242917 2:-0.57983193 3:-0.097941981 
32768 1:0.82399036 2:-0.64705882 3:-0.10440645 
32768 1:0.83604581 2:-0.42857143 3:-0.12116349 
32768 1:0.82399036 2:-0.6302521 3:-0.052978719 
32768 1:0.84448463 2:0.0084033613 3:-0.049437879 
32768 1:0.82399036 2:-0.6302521 3:-0.052978719 
32768 1:0.82399036 2:-0.6302521 3:-0.052978719 
32768 1:0.82399036 2:-0.6302521 3:-0.052978719 
32768 1:0.83001808 2:-0.36134454 3:-0.085518467 
32768 1:0.82399036 2:-0.6302521 3:-0.052978719 
32768 1:0.84689572 2:-0.42857143 3:-0.07342808 
32768 1:0.82881254 2:-0.27731092 3:-0.046645398 
32768 1:0.82399036 2:-0.6302521 3:-0.052978719 
9605.046936832674 1:0.87944545 2:0.37815126 3:-0.031601879 
32768 1:0.82881254 2:-0.44537815 3:-0.026021567 
32768 1:0.8251959 2:-0.59663866 3:-0.0073107479 
32768 1:0.83604581 2:-0.56302521 3:-0.0066855348 
32768 1:0.84810127 2:-0.46218487 3:-0.012732314 
32768 1:0.8251959 2:-0.59663866 3:-0.0073107479 
32768 1:0.82640145 2:-0.34453782 3:-0.043875872 
32768 1:0.8251959 2:-0.59663866 3:-0.0073107479 
32768 1:0.85292345 2:-0.22689076 3:-0.017238049 
4426.648648908181 1:0.46112116 2:0.22689076 3:-0.74854194 
20795.88041019641 1:0.45750452 2:0.21008403 3:-0.62236636 
6951.334622071291 1:0.49367089 2:0.15966387 3:-0.45500901 
25589.64580594302 1:0.49367089 2:0.14285714 3:-0.37338117 
26810.4580234401 1:0.48764316 2:0.075630252 3:-0.27025864 
9179.819410812239 1:0.4912598 2:0.36134454 3:-0.11732628 
2627.269505885417 1:0.47438216 2:0.29411765 3:-0.013072372 
16802.30084421514 1:0.71549126 2:0.6302521 3:-0.88346857 
14571.19842764401 1:0.70464135 2:0.56302521 3:-0.77774587 
32768 1:0.73477999 2:0.54621849 3:-0.77415135 
32170.29677494131 1:0.66003617 2:0.44537815 3:-0.80243718 
32768 1:0.74924653 2:0.61344538 3:-0.80666576 
32768 1:0.72031344 2:0.56302521 3:-0.77352381 
13337.39194099865 1:0.75527426 2:0.59663866 3:-0.71521538 
32768 1:0.68053044 2:0.46218487 3:-0.70942764 
32768 1:0.69861362 2:0.39495798 3:-0.6087458 
32768 1:0.69620253 2:0.39495798 3:-0.60248375 
32768 1:0.6901748 2:0.39495798 3:-0.62240965 
32768 1:0.67932489 2:0.4789916 3:-0.62622921 
28511.44577254395 1:0.68776371 2:0.37815126 3:-0.54396052 
32768 1:0.68776371 2:0.37815126 3:-0.54396052 
32768 1:0.68535262 2:-0.39495798 3:-0.47692347 
32768 1:0.70825799 2:0.39495798 3:-0.52785224 
32768 1:0.70102471 2:0.27731092 3:-0.52104711 
32768 1:0.68776371 2:0.37815126 3:-0.54396052 
32768 1:0.7058469 2:0.0084033613 3:-0.42554428 
32768 1:0.68896926 2:-0.29411765 3:-0.39820532 
32768 1:0.69499699 2:-0.59663866 3:-0.31647167 
21535.05055203116 1:0.66726944 2:0.34453782 3:-0.33583881 
6875.910258755466 1:0.71790235 2:0.34453782 3:-0.30155369 
32768 1:0.69379144 2:-0.51260504 3:-0.17753146 
6449.889342378785 1:0.7058469 2:0.32773109 3:-0.24881624 
1640.613012031441 1:0.6636528 2:0.34453782 3:-0.28019237 
32768 1:0.67329717 2:-0.56302521 3:-0.14670399 
1844.093071293342 1:0.6636528 2:0.32773109 3:-0.22583258 
32768 1:0.69620253 2:-0.46218487 3:-0.062715939 
11962.19388052872 1:0.6901748 2:0.21008403 3:-0.10948458 
32768 1:0.69861362 2:-0.42857143 3:-0.011348255 
32768 1:0.68655817 2:-0.44537815 3:0.030743583 
32768 1:0.72031344 2:0.17647059 3:-0.076217374 
32768 1:0.7058469 2:0.21008403 3:-0.077452162 
6923.002669164566 1:0.67932489 2:0.19327731 3:-0.0075339854 
16484.31292661312 1:0.70464135 2:0.22689076 3:-0.041957376 
10564.66917026419 1:0.7034358 2:0.22689076 3:0.0019277954 
32768 1:0.6901748 2:-0.39495798 3:0.13020666 
32768 1:0.7058469 2:-0.39495798 3:0.088902361 
32768 1:0.70946353 2:-1 3:0.069119123 
32768 1:0.68896926 2:-0.89915966 3:-0.026036348 
10156.6195662197 1:0.68776371 2:0.21008403 3:0.041264049 
32768 1:0.67811935 2:0.19327731 3:0.041730393 
32768 1:0.75647981 2:-0.22689076 3:-0.71749709 
32768 1:0.75647981 2:-0.22689076 3:-0.71749709 
32768 1:0.63592526 2:-0.29411765 3:-0.5462737 
32768 1:0.65521398 2:0.14285714 3:-0.50257708 
32768 1:0.63592526 2:-0.29411765 3:-0.5462737 
2384.292088410247 1:0.63471971 2:0.092436975 3:-0.4990298 
32768 1:0.72393008 2:-0.37815126 3:-0.53238114 
32768 1:0.72393008 2:-0.37815126 3:-0.53238114 
32768 1:0.68414708 2:0.17647059 3:-0.35065187 
32768 1:0.68414708 2:0.17647059 3:-0.35065187 
32768 1:0.68414708 2:0.17647059 3:-0.35065187 
32768 1:0.75647981 2:-0.29411765 3:-0.36628122 
3069.249984336927 1:0.64074744 2:0.092436975 3:-0.34018041 
32768 1:0.67932489 2:-0.37815126 3:-0.25410236 
32768 1:0.66606389 2:0.075630252 3:-0.2027016 
32768 1:0.66606389 2:0.075630252 3:-0.2027016 
32768 1:0.66606389 2:0.075630252 3:-0.2027016 
32768 1:0.66606389 2:0.075630252 3:-0.2027016 
32768 1:0.66606389 2:0.075630252 3:-0.2027016 
32768 1:0.66606389 2:0.075630252 3:-0.2027016 
32768 1:0.72513562 2:-0.61344538 3:-0.21529824 
32768 1:0.70464135 2:-0.22689076 3:-0.12961454 
32768 1:0.67088608 2:-0.15966387 3:-0.092002156 
32768 1:0.7058469 2:-0.31092437 3:-0.1026092 
32768 1:0.7058469 2:-0.31092437 3:-0.1026092 
32768 1:0.68655817 2:-0.21008403 3:-0.026144521 
32768 1:0.68655817 2:-0.21008403 3:-0.026144521 
32768 1:0.66003617 2:-0.57983193 3:0.011988028 
32768 1:0.64436407 2:-0.52941176 3:-0.037060731 
32768 1:0.64074744 2:-0.66386555 3:0.091763531 
32768 1:0.64074744 2:-0.66386555 3:0.091763531 
32768 1:0.68535262 2:-0.46218487 3:0.11018238 
28858.44678478022 1:0.64195298 2:-0.73109244 3:0.20779492 
32768 1:0.65883062 2:-0.74789916 3:0.22124441 
32768 1:0.62145871 2:-0.46218487 3:0.14905764 
32768 1:0.6925859 2:-0.66386555 3:0.35703788 
32768 1:0.70705244 2:-0.66386555 3:0.44726579 
13846.4100846038 1:0.67088608 2:-0.57983193 3:0.38584356 
9357.56323653395 1:0.75286317 2:-0.57983193 3:0.58185212 
24086.67389824877 1:0.47076552 2:0.19327731 3:-0.49043238 
13513.61686650784 1:0.4225437 2:0.2605042 3:-0.50911636 
32768 1:0.4225437 2:0.2605042 3:-0.50911636 
32768 1:0.51175407 2:0.15966387 3:-0.3180742 
135.7361921787461 1:0.52019289 2:0.15966387 3:-0.16585222 
32768 1:0.48161543 2:0.12605042 3:-0.17300499 
32768 1:0.48161543 2:0.12605042 3:-0.17300499 
32768 1:0.68535262 2:-0.22689076 3:-0.95412161 
32768 1:0.61663653 2:-0.12605042 3:-0.87090499 
32768 1:0.62748644 2:-0.058823529 3:-0.86703464 
32768 1:0.72634117 2:0.42857143 3:-0.82919326 
24561.15425125363 1:0.59132007 2:0.0084033613 3:-0.79839519 
32768 1:0.59132007 2:0.0084033613 3:-0.79839519 
32768 1:0.69138035 2:0.34453782 3:-0.65603659 
20741.78777577767 1:0.69499699 2:0.52941176 3:-0.67143486 
32768 1:0.69499699 2:0.52941176 3:-0.67143486 
32768 1:0.66726944 2:0.51260504 3:-0.67195954 
32768 1:0.66726944 2:0.51260504 3:-0.67195954 
19056.22190539891 1:0.69499699 2:0.52941176 3:-0.67143486 
32768 1:0.56720916 2:-0.61344538 3:-0.62498845 
32768 1:0.56720916 2:-0.61344538 3:-0.62498845 
2330.101890929474 1:0.50090416 2:0.1092437 3:-0.56815818 
32768 1:0.68655817 2:0.46218487 3:-0.59974808 
12572.58217276248 1:0.6503918 2:-0.075630252 3:-0.59907253 
32768 1:0.69379144 2:0.39495798 3:-0.59346522 
32768 1:0.68655817 2:0.46218487 3:-0.59974808 
32768 1:0.6503918 2:-0.075630252 3:-0.59907253 
7281.989568580096 1:0.69861362 2:0.39495798 3:-0.52928211 
32768 1:0.69861362 2:0.39495798 3:-0.52928211 
32768 1:0.69861362 2:0.39495798 3:-0.52928211 
32768 1:0.72031344 2:0.36134454 3:-0.47277003 
32768 1:0.57926462 2:-0.71428571 3:-0.49037787 
32768 1:0.72031344 2:0.36134454 3:-0.47277003 
32768 1:0.72031344 2:0.36134454 3:-0.47277003 
32768 1:0.72031344 2:0.36134454 3:-0.47277003 
32768 1:0.59493671 2:-0.76470588 3:-0.37120103 
32768 1:0.64436407 2:-0.058823529 3:-0.32827586 
32768 1:0.56962025 2:-0.74789916 3:-0.20756498 
32768 1:0.65883062 2:-0.39495798 3:-0.14284072 
32768 1:0.68173599 2:0.46218487 3:-0.92646181 
32768 1:0.60578662 2:0.058823529 3:-0.9298563 
32768 1:0.60578662 2:0.058823529 3:-0.9298563 
32768 1:0.68173599 2:0.46218487 3:-0.92646181 
32768 1:0.68173599 2:0.46218487 3:-0.92646181 
32768 1:0.68173599 2:0.46218487 3:-0.92646181 
32768 1:0.62266426 2:0.17647059 3:-0.84719768 
32768 1:0.62266426 2:0.17647059 3:-0.84719768 
9189.369062485459 1:0.6106088 2:0.042016807 3:-0.83131598 
32768 1:0.62266426 2:0.17647059 3:-0.84719768 
32768 1:0.62145871 2:0.075630252 3:-0.83329328 
32768 1:0.63351417 2:0.37815126 3:-0.80292522 
5046.304439356659 1:0.59975889 2:0.29411765 3:-0.79808009 
32768 1:0.62145871 2:0.075630252 3:-0.83329328 
18328.13675388586 1:0.62145871 2:0.058823529 3:-0.74465694 
38.69413822776476 1:0.56720916 2:0.21008403 3:-0.70128592 
32768 1:0.64195298 2:0.46218487 3:-0.70853729 
32768 1:0.63110307 2:-0.075630252 3:-0.75949707 
32768 1:0.63110307 2:-0.075630252 3:-0.75949707 
15834.59600629249 1:0.65762508 2:0.14285714 3:-0.72159747 
24498.62332588954 1:0.63110307 2:0.075630252 3:-0.66294089 
32768 1:0.62025316 2:0.025210084 3:-0.66581788 
32768 1:0.62025316 2:0.025210084 3:-0.66581788 
22202.79334364777 1:0.63592526 2:0.075630252 3:-0.58729778 
32768 1:0.67329717 2:0.24369748 3:-0.58345075 
32768 1:0.66003617 2:0.15966387 3:-0.55982109 
32768 1:0.67088608 2:0.24369748 3:-0.51364495 
32768 1:0.65883062 2:0.15966387 3:-0.50952818 
32768 1:0.64918626 2:0.15966387 3:-0.51522442 
32768 1:0.64918626 2:0.15966387 3:-0.51522442 
32768 1:0.64798071 2:0.1092437 3:-0.44841262 
32768 1:0.65762508 2:0.12605042 3:-0.38931962 
13200.03496985462 1:0.55274262 2:-0.22689076 3:-0.47199498 
32768 1:0.65762508 2:0.12605042 3:-0.38931962 
32768 1:0.64556962 2:0.17647059 3:-0.39304369 
28.17126835562139 1:0.54550934 2:-0.24369748 3:-0.39992184 
23347.43941145653 1:0.64436407 2:0.17647059 3:-0.34166067 
3582.844509873051 1:0.63954189 2:0.025210084 3:-0.33745239 
32768 1:0.6503918 2:-0.0084033613 3:-0.28059917 
32768 1:0.6503918 2:-0.0084033613 3:-0.28059917 
32768 1:0.64195298 2:-0.0084033613 3:-0.28802397 
23282.18225518517 1:0.61181435 2:0.12605042 3:-0.3193541 
29128.198961769 1:0.55877034 2:-0.22689076 3:-0.34956911 
3849.657167765095 1:0.6371308 2:0.14285714 3:-0.23965673 
1266.812610982692 1:0.64556962 2:-0.0084033613 3:-0.23872793 
32768 1:0.66124171 2:-0.042016807 3:-0.16441901 
4123.065262341778 1:0.64195298 2:0.14285714 3:-0.091612243 
7902.989597413144 1:0.54309825 2:-0.2605042 3:-0.19908958 
11618.72402297065 1:0.66124171 2:-0.042016807 3:-0.080991098 
32768 1:0.60578662 2:0.29411765 3:-0.85625793 
23869.52271440221 1:0.5177818 2:0.025210084 3:-0.86246416 
15223.53895278139 1:0.55274262 2:0.42857143 3:-0.85283215 
1968.320860072889 1:0.5575648 2:0.31092437 3:-0.73915359 
32768 1:0.64436407 2:-0.46218487 3:-0.78010801 
3410.415597494938 1:0.52019289 2:-0.092436975 3:-0.73921523 
3881.872639083411 1:0.5973478 2:0.1092437 3:-0.66218191 
9525.090358488374 1:0.52622061 2:-0.042016807 3:-0.637974 
5425.072084928438 1:0.55033153 2:-0.21008403 3:-0.40895819 
32768 1:0.60216998 2:-0.66386555 3:-0.25830161 
32768 1:0.60819771 2:-0.64705882 3:-0.18889716 
32768 1:0.50572634 2:-0.2605042 3:-0.14595834 
32768 1:0.68896926 2:-0.96638655 3:-0.047887513 
24765.76239907967 1:0.51295961 2:-0.41176471 3:0.0051789981 
32768 1:0.51295961 2:-0.41176471 3:0.0051789981 
15828.56409122988 1:0.51295961 2:-0.41176471 3:0.0051789981 
8057.84669141509 1:0.48282098 2:-0.24369748 3:0.16117479 
285.930268059074 1:0.42013261 2:0.27731092 3:-0.48925314 
20576.10673793249 1:0.44424352 2:0.29411765 3:-0.48684494 
32768 1:0.44303797 2:0.2605042 3:-0.4775671 
24581.49676411479 1:0.42616034 2:0.092436975 3:-0.27134429 
426.1469622354883 1:0.42736588 2:0.075630252 3:-0.15381033 
32768 1:0.42736588 2:0.075630252 3:-0.15381033 
32768 1:0.8649789 2:-0.39495798 3:-0.8679803 
32768 1:0.8649789 2:-0.39495798 3:-0.8679803 
32768 1:0.8649789 2:-0.39495798 3:-0.8679803 
32768 1:0.8649789 2:-0.39495798 3:-0.8679803 
32768 1:0.8649789 2:-0.39495798 3:-0.8679803 
32768 1:0.8649789 2:-0.39495798 3:-0.8679803 
32768 1:0.8649789 2:-0.39495798 3:-0.8679803 
32768 1:0.8649789 2:-0.39495798 3:-0.8679803 
32768 1:0.8649789 2:-0.39495798 3:-0.8679803 
32768 1:0.8649789 2:-0.39495798 3:-0.8679803 
32768 1:0.88185654 2:-0.39495798 3:-0.84000628 
32768 1:0.88185654 2:-0.39495798 3:-0.84000628 
32768 1:0.88185654 2:-0.39495798 3:-0.84000628 
32768 1:0.88185654 2:-0.39495798 3:-0.84000628 
32768 1:0.88185654 2:-0.39495798 3:-0.84000628 
32768 1:0.88185654 2:-0.39495798 3:-0.84000628 
32768 1:0.88185654 2:-0.39495798 3:-0.84000628 
32768 1:0.88185654 2:-0.39495798 3:-0.84000628 
32768 1:0.88185654 2:-0.39495798 3:-0.84000628 
32768 1:0.88185654 2:-0.39495798 3:-0.84000628 
32768 1:0.84810127 2:-0.68067227 3:-0.78557848 
32768 1:0.84810127 2:-0.68067227 3:-0.78557848 
32768 1:0.84810127 2:-0.68067227 3:-0.78557848 
32768 1:0.84810127 2:-0.68067227 3:-0.78557848 
32768 1:0.84810127 2:-0.68067227 3:-0.78557848 
32768 1:0.84810127 2:-0.68067227 3:-0.78557848 
32768 1:0.84810127 2:-0.68067227 3:-0.78557848 
32768 1:0.84810127 2:-0.68067227 3:-0.78557848 
32768 1:0.84569017 2:-0.68067227 3:-0.7390639 
32768 1:0.84569017 2:-0.68067227 3:-0.7390639 
32768 1:0.84569017 2:-0.68067227 3:-0.7390639 
32768 1:0.84569017 2:-0.68067227 3:-0.7390639 
32768 1:0.84569017 2:-0.68067227 3:-0.7390639 
32768 1:0.84569017 2:-0.68067227 3:-0.7390639 
32768 1:0.84569017 2:-0.68067227 3:-0.7390639 
32768 1:0.83966245 2:-0.6302521 3:-0.69226667 
32768 1:0.83966245 2:-0.6302521 3:-0.69226667 
32768 1:0.83966245 2:-0.6302521 3:-0.69268859 
32768 1:0.83966245 2:-0.6302521 3:-0.69226667 
32768 1:0.83966245 2:-0.6302521 3:-0.69226667 
32768 1:0.83966245 2:-0.6302521 3:-0.69226667 
32768 1:0.83966245 2:-0.6302521 3:-0.69226667 
32768 1:0.83966245 2:-0.6302521 3:-0.69226667 
32768 1:0.83484027 2:-0.59663866 3:-0.64913289 
32768 1:0.83484027 2:-0.59663866 3:-0.64913289 
32768 1:0.83484027 2:-0.59663866 3:-0.64913289 
32768 1:0.83484027 2:-0.59663866 3:-0.64913289 
32768 1:0.8384569 2:-0.59663866 3:-0.57265903 
32768 1:0.8384569 2:-0.59663866 3:-0.57265903 
32768 1:0.8384569 2:-0.59663866 3:-0.57265903 
32768 1:0.8384569 2:-0.59663866 3:-0.57265903 
32768 1:0.8384569 2:-0.59663866 3:-0.57265903 
32768 1:0.84207354 2:-0.71428571 3:-0.43496826 
19552.67736899122 1:0.54309825 2:0.59663866 3:-0.84232819 
32768 1:0.54309825 2:0.59663866 3:-0.84232819 
32768 1:0.54309825 2:0.59663866 3:-0.84232819 
724.9881645395088 1:0.58167571 2:0.29411765 3:-0.63051788 
11907.5554444739 1:0.58167571 2:0.19327731 3:-0.50735382 
1383.84534606706 1:0.55033153 2:0.34453782 3:-0.38257987 
5745.352947978382 1:0.54912598 2:0.27731092 3:-0.40018676 
1939.346435571725 1:0.52983725 2:0.31092437 3:-0.20233804 
32768 1:0.52983725 2:0.31092437 3:-0.15760619 
11023.90244560011 1:0.44303797 2:0.24369748 3:-0.78003783 
6780.481518405968 1:0.45871007 2:0.19327731 3:-0.76960105 
1352.174199776837 1:0.48161543 2:0.22689076 3:-0.75350001 
7312.107872899778 1:0.45388788 2:0.2605042 3:-0.66646323 
8502.391543259122 1:0.48402652 2:0.24369748 3:-0.64879179 
13958.0670244429 1:0.43942134 2:0.21008403 3:-0.64688584 
11873.84214992227 1:0.47076552 2:0.22689076 3:-0.55726768 
32768 1:0.47076552 2:0.22689076 3:-0.55726768 
9106.105231947215 1:0.49487643 2:0.21008403 3:-0.47567061 
19614.02163282991 1:0.48643761 2:0.21008403 3:-0.39755617 
18719.16984403734 1:0.4888487 2:0.17647059 3:-0.43201458 
12176.38279505797 1:0.45871007 2:0.092436975 3:-0.32330668 
15778.76351847993 1:0.48282098 2:0.21008403 3:-0.36264268 
4516.841766123213 1:0.49005425 2:0.21008403 3:-0.34815348 
16165.79638949843 1:0.48643761 2:0.15966387 3:-0.27765677 
32768 1:0.47317661 2:0.1092437 3:-0.13456089 
29461.38216510534 1:0.48523207 2:0.14285714 3:-0.14821892 
32768 1:0.48523207 2:0.14285714 3:-0.14821892 
32768 1:0.48523207 2:0.14285714 3:-0.14821892 
32768 1:0.48523207 2:0.14285714 3:-0.14821892 
32768 1:0.48523207 2:0.14285714 3:-0.14821892 
32768 1:0.48523207 2:0.14285714 3:-0.14821892 
32764.32055596677 1:0.48523207 2:0.14285714 3:-0.14821892 
32768 1:0.46594334 2:0.092436975 3:-0.082321858 
32768 1:0.46594334 2:0.092436975 3:-0.082321858 
1871.449650798061 1:0.49608198 2:0.042016807 3:-0.083455569 
32768 1:0.47679325 2:0.1092437 3:-0.067191035 
32768 1:0.47920434 2:0.12605042 3:-0.0065912833 
32768 1:0.47920434 2:0.12605042 3:-0.0065912833 
32768 1:0.47920434 2:0.12605042 3:-0.0065912833 
32768 1:0.76612417 2:0.12605042 3:-0.93179348 
32768 1:0.76612417 2:0.12605042 3:-0.93179348 
32768 1:0.55997589 2:0.44537815 3:-0.90395732 
9272.852336271531 1:0.39963834 2:0.51260504 3:-0.81146141 
20333.36633271409 1:0.42736588 2:0.4789916 3:-0.80732462 
32768 1:0.55877034 2:0.46218487 3:-0.6872227 
432.9767580531466 1:0.56841471 2:0.36134454 3:-0.69230168 
11415.75838927992 1:0.55274262 2:0.42857143 3:-0.69990037 
5666.365938923626 1:0.51898734 2:0.37815126 3:-0.61598867 
11526.95005706127 1:0.6238698 2:0.22689076 3:-0.60339405 
3267.605965428424 1:0.46353225 2:0.39495798 3:-0.63315527 
4950.311051898128 1:0.48523207 2:0.24369748 3:-0.54592272 
2607.941752685349 1:0.51898734 2:0.17647059 3:-0.46651836 
2786.729755153225 1:0.50813743 2:0.17647059 3:-0.38915177 
32768 1:0.48161543 2:0.14285714 3:-0.32771167 
2362.213095800322 1:0.50331525 2:0.27731092 3:-0.31906169 
32768 1:0.48161543 2:0.14285714 3:-0.32771167 
32768 1:0.48161543 2:0.14285714 3:-0.32771167 
2611.845353409803 1:0.51295961 2:0.17647059 3:-0.19740827 
8002.0377756869 1:0.52622061 2:0.092436975 3:-0.13688921 
32768 1:0.66847498 2:-0.39495798 3:-0.90611875 
32768 1:0.66847498 2:-0.39495798 3:-0.90611875 
32768 1:0.66847498 2:-0.39495798 3:-0.90611875 
6003.634132687639 1:0.5840868 2:0.59663866 3:-0.90495757 
32768 1:0.62025316 2:0.21008403 3:-0.8956805 
32768 1:0.67450271 2:-0.22689076 3:-0.77757543 
32768 1:0.67088608 2:-0.075630252 3:-0.80123321 
32768 1:0.68173599 2:-0.17647059 3:-0.786464 
32768 1:0.67450271 2:-0.22689076 3:-0.77757543 
32768 1:0.68294153 2:-0.075630252 3:-0.669298 
32768 1:0.68294153 2:-0.075630252 3:-0.669298 
32768 1:0.68294153 2:-0.075630252 3:-0.669298 
32768 1:0.68173599 2:0.092436975 3:-0.59784093 
32768 1:0.66606389 2:-0.075630252 3:-0.58400767 
32768 1:0.68173599 2:0.092436975 3:-0.59784093 
32768 1:0.65641953 2:0.025210084 3:-0.61360505 
32768 1:0.65641953 2:0.025210084 3:-0.61360505 
32768 1:0.65641953 2:0.025210084 3:-0.61360505 
32768 1:0.66726944 2:-0.025210084 3:-0.52146888 
32768 1:0.68053044 2:-0.29411765 3:-0.49124729 
32768 1:0.66726944 2:-0.025210084 3:-0.52146888 
32768 1:0.66726944 2:-0.025210084 3:-0.52146888 
32768 1:0.66124171 2:0.0084033613 3:-0.50669382 
32768 1:0.66726944 2:-0.025210084 3:-0.52146888 
32768 1:0.66124171 2:0.0084033613 3:-0.50669382 
32768 1:0.66847498 2:-0.29411765 3:-0.42325968 
32768 1:0.6636528 2:-0.025210084 3:-0.45105434 
32768 1:0.6636528 2:-0.025210084 3:-0.45105434 
32768 1:0.6636528 2:-0.025210084 3:-0.45105434 
32768 1:0.66847498 2:-0.29411765 3:-0.42325968 
32768 1:0.66485835 2:-0.22689076 3:-0.35965505 
277.8073150155877 1:0.53465943 2:0.14285714 3:-0.42440808 
32768 1:0.66485835 2:-0.22689076 3:-0.35965505 
32768 1:0.66485835 2:-0.22689076 3:-0.35965505 
1103.488280179684 1:0.55394816 2:0.17647059 3:-0.34675649 
7575.208064306174 1:0.48643761 2:0.19327731 3:-0.77168051 
