svm_type c_svc
kernel_type rbf
gamma 10
nr_class 2
total_sv 9
rho 0.181343
label 1 -1
nr_sv 5 4
SV
0.2385467472067263 1:0.43181818 2:0.58208955 3:-0.059293185 
0.9689962990226416 1:0.43181818 2:0.58208955 3:-0.059293185 
0.3763940579024884 1:0.72727273 2:0.79104478 3:0.97257121 
0.8353084017400783 1:0.59090909 2:1 3:0.9337109 
0.8890241018279723 1:1 2:0.91044776 3:1 
-0.8184575764199743 1:-1 2:-1 3:-1 
-0.8549331682020705 1:-0.068181818 2:0.70149254 3:-0.34827839 
-0.8179131921596228 1:-0.84090909 2:0.10447761 3:-0.31796252 
-0.8169656709182394 1:-0.056818182 2:-0.13432836 3:-0.35708784 
