svm_type c_svc
kernel_type rbf
gamma 0.5
nr_class 2
total_sv 48
rho -0.253616
label 1 -1
nr_sv 24 24
SV
1 1:0.32283 2:0.34884 3:-0.62324 
1 1:0.35236 2:0.45736 3:-0.85701 
1 1:0.36614 2:0.50388 3:-0.87007 
1 1:0.44291 2:0.48837 3:-0.5148 
1 1:0.49016 2:0.42636 3:-0.36001 
1 1:0.33071 2:0.42636 3:-0.80394 
1 1:0.33661 2:0.45736 3:-0.79394 
1 1:0.49016 2:0.51938 3:-0.66199 
1 1:0.47835 2:0.50388 3:-0.64182 
1 1:0.32874 2:0.47287 3:-0.78264 
1 1:0.44685 2:-0.51938 3:0.53523 
1 1:0.46457 2:0.47287 3:-0.64302 
1 1:0.51772 2:-0.76744 3:0.56474 
1 1:0.35039 2:-0.75194 3:0.57605 
1 1:0.42323 2:0.50388 3:-0.48999 
1 1:0.31102 2:0.41085 3:-0.69283 
1 1:0.27756 2:0.22481 3:-0.60242 
1 1:0.25787 2:0.28682 3:-0.63079 
1 1:0.41339 2:-0.72093 3:0.70691 
1 1:0.16535 2:-0.05426 3:-0.54445 
1 1:0.17913 2:0.14729 3:-0.7039 
1 1:0.2185 2:-0.05426 3:-0.42118 
1 1:0.27559 2:-0.00775 3:-0.51057 
1 1:0.24803 2:0.10078 3:-0.48944 
-1 1:0.38976 2:-0.5969 3:0.23986 
-1 1:0.46457 2:0.44186 3:-0.83044 
-1 1:0.41535 2:0.42636 3:-0.78359 
-1 1:0.49213 2:0.31783 3:-0.48032 
-1 1:0.33661 2:-0.02326 3:-0.26417 
-1 1:0.42913 2:0.42636 3:-0.90339 
-1 1:0.41929 2:0.27132 3:-0.65097 
-1 1:0.27362 2:0.24031 3:-0.73631 
-1 1:0.4252 2:-0.51938 3:0.20274 
-1 1:0.51772 2:0.42636 3:-0.69016 
-1 1:0.44291 2:-0.24031 3:0.03364 
-1 1:0.4626 2:-0.2093 3:0.03056 
-1 1:0.37795 2:0.27132 3:-0.73887 
-1 1:0.37205 2:0.11628 3:-0.51965 
-1 1:0.32087 2:0.10078 3:-0.5478 
-1 1:0.40748 2:0.08527 3:-0.52173 
-1 1:0.3937 2:0.13178 3:-0.55907 
-1 1:0.31299 2:0.51938 3:-0.96338 
-1 1:0.41732 2:-0.47287 3:0.01684 
-1 1:0.3563 2:0.34884 3:-0.73516 
-1 1:0.49606 2:0.47287 3:-0.90555 
-1 1:0.1063 2:0.24031 3:-0.73781 
-1 1:0.04528 2:0.30233 3:-0.85401 
-1 1:0.44488 2:0.11628 3:-0.48349 
