svm_type c_svc
kernel_type rbf
gamma 16
nr_class 2
total_sv 566
rho 0.846594
label 1 -1
probA -1.95162
probB -0.569087
nr_sv 310 256
SV
0.04859764380808406 1:-0.52952756 2:0.33333333 3:-0.64328741 
0.7603166316412022 1:-0.81889764 2:0.53488372 3:-0.48772306 
0.7541172897886296 1:-0.36220472 2:-0.33333333 3:-0.67700186 
0.5365615935455816 1:-0.53937008 2:0.13178295 3:-0.83349478 
0.01321115720022182 1:-0.5492126 2:0.27131783 3:-0.61290455 
552.564255424718 1:0.37795276 2:0.39534884 3:-0.76377871 
1024 1:0.41141732 2:0.33333333 3:-0.75476076 
237.5195481402635 1:0.16732283 2:0.17829457 3:-0.66641887 
432.5664723627006 1:0.26574803 2:0.2248062 3:-0.39586044 
37.36680777989495 1:0.13385827 2:0.023255814 3:-0.27310846 
1024 1:0.23818898 2:0.24031008 3:-0.35682925 
379.2431604204736 1:0.23031496 2:0.27131783 3:-0.32323479 
44.22076053118379 1:0.13976378 2:0.14728682 3:-0.13359566 
226.1595330077262 1:0.26968504 2:0.27131783 3:-0.20838565 
2.579991101697842 1:0.15551181 2:0.5503876 3:-0.1633445 
16.58734829484085 1:0.26181102 2:0.27131783 3:-0.15251225 
0.08302564220271604 1:-0.42519685 2:0.58139535 3:-0.8949253 
0.6799742829584938 1:-0.67322835 2:0.24031008 3:-0.90326666 
0.1593957046391627 1:-0.42519685 2:0.58139535 3:-0.8949253 
0.8082753720607225 1:-0.49409449 2:0.64341085 3:-0.89266668 
0.07283829144049735 1:-0.56889764 2:0.30232558 3:-0.86562343 
0.0401961469259419 1:-0.56889764 2:0.30232558 3:-0.86562343 
0.02738909573668378 1:-0.46456693 2:-0.054263566 3:-0.64559813 
0.4840975475722862 1:-0.4507874 2:-0.13178295 3:-0.35332452 
0.003655775000384654 1:-0.88188976 2:0.59689922 3:-0.75959862 
1.057768014484023 1:-1 2:0.56589147 3:-0.76365462 
0.1828478446208943 1:-0.88188976 2:0.59689922 3:-0.75959862 
0.09389239430250003 1:-0.6988189 2:-0.054263566 3:-0.49167785 
0.6319276446748536 1:-0.7992126 2:0.44186047 3:-0.34241619 
0.05825643866439749 1:-0.73622047 2:0.28682171 3:-0.15968874 
0.1189815660218131 1:-0.62007874 2:-0.56589147 3:-0.14370316 
1.078386533681022 1:-0.48031496 2:-0.70542636 3:-0.13389382 
0.09553764635204798 1:-0.75590551 2:-0.007751938 3:-0.11504674 
0.9562437858255977 1:-0.75590551 2:-0.007751938 3:-0.11504674 
1.031916447741169 1:-0.76771654 2:0.24031008 3:-0.11903919 
1.285520078213695 1:-0.7480315 2:-0.39534884 3:-0.13695852 
0.524471611883483 1:-0.46653543 2:0.5503876 3:-0.52823505 
0.7920029434440417 1:-0.41141732 2:0.50387597 3:-0.31911715 
0.2173167257113598 1:-0.39173228 2:0.085271318 3:-0.24249993 
0.4738381654511313 1:-0.42125984 2:0.41085271 3:-0.26085444 
1024 1:0.47440945 2:-0.41085271 3:-0.80741846 
1.235267007520697 1:0.21062992 2:0.2248062 3:-0.78206299 
556.1314518144283 1:0.21062992 2:0.2248062 3:-0.78206299 
683.1855957696769 1:0.23818898 2:0.20930233 3:-0.78335081 
20.29852173497303 1:0.22047244 2:0.41085271 3:-0.73332458 
38.45781554958553 1:0.26771654 2:0.39534884 3:-0.73133186 
5.755496498060173 1:0.22047244 2:0.41085271 3:-0.73332458 
420.4584109028946 1:0.26771654 2:0.39534884 3:-0.73133186 
1024 1:0.25393701 2:0.39534884 3:-0.70776178 
384.7043688039977 1:0.37598425 2:-0.50387597 3:-0.70224196 
21.41123906408266 1:0.24015748 2:0.41085271 3:-0.68281989 
688.0037734576122 1:0.24015748 2:0.41085271 3:-0.68281989 
1024 1:0.25787402 2:0.27131783 3:-0.65815269 
289.6697267152809 1:0.26968504 2:0.27131783 3:-0.61011608 
173.7746769962113 1:0.27952756 2:0.25581395 3:-0.57316434 
1024 1:0.27952756 2:0.25581395 3:-0.57316434 
0.5397939257434262 1:0.029527559 2:-0.6124031 3:-0.2071847 
0.01223328020956709 1:0.029527559 2:-0.6124031 3:-0.2071847 
9.349490581041946 1:0.029527559 2:-0.6124031 3:-0.2071847 
2.068426602568668 1:0.0019685039 2:-1 3:-0.15548485 
0.42864299638647 1:-0.6988189 2:-0.007751938 3:-0.80529772 
0.7866523522358528 1:-0.40551181 2:0.6744186 3:-0.73342446 
0.9864235595297393 1:-1 2:0.30232558 3:-0.86113484 
0.9405980555391268 1:-1 2:-0.069767442 3:-0.81403279 
0.2962481447735859 1:-1 2:0.085271318 3:-0.69489651 
0.05942098677150287 1:-1 2:-0.30232558 3:-0.70269952 
0.893268749783567 1:-1 2:-0.30232558 3:-0.70269952 
0.03964002626078671 1:-1 2:-0.31782946 3:-0.53036384 
0.05414805290304517 1:-1 2:-0.31782946 3:-0.53036384 
0.3303206929757241 1:-0.63582677 2:-0.1627907 3:-0.49251611 
1.045096187634449 1:-1 2:-0.14728682 3:-0.41725589 
0.1069119901807319 1:-0.52559055 2:0.085271318 3:-0.45874848 
0.3930230924446763 1:-0.52559055 2:0.085271318 3:-0.45874848 
0.8579122480684115 1:-0.56692913 2:-0.24031008 3:-0.77371312 
0.06866816833210611 1:-0.59645669 2:-0.44186047 3:-0.72089412 
0.9918196729310067 1:-0.62795276 2:-0.58139535 3:-0.66622925 
0.2267974914006009 1:-0.93503937 2:0.34883721 3:-0.56706046 
0.7517682414683122 1:-0.84251969 2:-0.45736434 3:-0.48292772 
0.7444883347882 1:-0.90354331 2:0.14728682 3:-0.46011889 
0.1792513614637058 1:-0.4507874 2:-0.45736434 3:-0.4314748 
0.2638104585911411 1:-0.76771654 2:-0.75193798 3:-0.43617674 
0.7789151343557092 1:-0.44291339 2:-0.72093023 3:-0.48187263 
1.119942630435584 1:-0.74409449 2:-0.81395349 3:-0.34165946 
0.0654533873458511 1:-0.67519685 2:-0.81395349 3:-0.27559662 
0.8226076696560589 1:0.035433071 2:0.17829457 3:-0.87756463 
20.62867351592285 1:0.035433071 2:0.17829457 3:-0.87756463 
1024 1:0.60433071 2:0.007751938 3:-0.87259568 
0.1169237868048176 1:-0.41929134 2:0.39534884 3:-0.85680911 
1024 1:0.41732283 2:-0.33333333 3:-0.77878398 
1024 1:0.37401575 2:-0.36434109 3:-0.71133051 
183.22084574349 1:0.28346457 2:-0.39534884 3:-0.67333909 
0.06280943444869332 1:-0.41338583 2:-0.44186047 3:-0.50837449 
0.1859198516969023 1:-0.38779528 2:-0.28682171 3:-0.45756761 
0.008729349540824811 1:-0.51968504 2:-0.39534884 3:-0.430231 
1024 1:0.49606299 2:0.31782946 3:-0.82318579 
16.29319758269619 1:0.34645669 2:0.37984496 3:-0.82497707 
897.9669630626798 1:0.34645669 2:0.37984496 3:-0.82497707 
1024 1:0.28937008 2:0.42635659 3:-0.76063465 
1024 1:0.44094488 2:0.054263566 3:-0.77355779 
1024 1:0.28937008 2:0.42635659 3:-0.76063465 
1024 1:0.52165354 2:0.19379845 3:-0.70334725 
776.4724243577924 1:0.4015748 2:0.069767442 3:-0.73799236 
657.9091650804909 1:0.39173228 2:0.1627907 3:-0.65222222 
1024 1:0.39370079 2:0.03875969 3:-0.66677134 
1024 1:0.37795276 2:-0.25581395 3:-0.58219511 
1024 1:0.43700787 2:0.007751938 3:-0.59064024 
678.2438310836358 1:0.39370079 2:0.069767442 3:-0.5170217 
509.8076740303039 1:0.28543307 2:0.36434109 3:-0.49361774 
787.2291792421345 1:0.39173228 2:-0.007751938 3:-0.44395545 
59.56310626686375 1:0.39173228 2:-0.007751938 3:-0.44395545 
1024 1:0.29724409 2:0.36434109 3:-0.45894776 
1024 1:0.30708661 2:0.36434109 3:-0.42532888 
1024 1:0.37204724 2:-0.36434109 3:-0.46812059 
1024 1:0.40748031 2:-0.24031008 3:-0.45386115 
820.9924604564661 1:0.30511811 2:0.41085271 3:-0.41379044 
321.424313397051 1:0.33464567 2:0.36434109 3:-0.39264787 
1024 1:0.37204724 2:-0.36434109 3:-0.46812059 
0.4417235635224723 1:0.30511811 2:0.41085271 3:-0.41379044 
1024 1:0.40748031 2:-0.24031008 3:-0.45386115 
90.47265872212004 1:0.30511811 2:0.41085271 3:-0.41379044 
384.4320761887556 1:0.40354331 2:-0.007751938 3:-0.36381229 
201.6327651680328 1:0.38188976 2:-0.24031008 3:-0.42714367 
1.899065320881125 1:0.33070866 2:0.39534884 3:-0.35495739 
52.5220745462701 1:0.33070866 2:0.39534884 3:-0.35495739 
7.25304812838187 1:0.33070866 2:0.39534884 3:-0.35495739 
1024 1:0.6003937 2:0.023255814 3:-0.8146767 
133.3528463043463 1:0.46456693 2:0.5503876 3:-0.80739812 
0.3276738288795471 1:0.46456693 2:0.5503876 3:-0.80739812 
1024 1:0.6003937 2:0.023255814 3:-0.8146767 
9.128221741543966 1:0.46456693 2:0.5503876 3:-0.80739812 
764.3167874055536 1:0.46456693 2:0.5503876 3:-0.80739812 
333.2487610035061 1:0.48228346 2:0.47286822 3:-0.74201072 
1024 1:0.64173228 2:-0.41085271 3:-0.75310015 
1024 1:0.62795276 2:0.36434109 3:-0.7443774 
1019.54135317528 1:0.48228346 2:0.47286822 3:-0.74201072 
1024 1:0.46456693 2:-0.53488372 3:-0.69812303 
1024 1:0.68110236 2:-0.11627907 3:-0.68755352 
1024 1:0.46456693 2:-0.53488372 3:-0.69812303 
1024 1:0.69488189 2:-0.069767442 3:-0.6928868 
1024 1:0.65748031 2:-0.20930233 3:-0.68697344 
647.033599029558 1:0.38976378 2:-0.62790698 3:-0.71922737 
1024 1:0.65748031 2:-0.20930233 3:-0.68697344 
1024 1:0.46456693 2:-0.53488372 3:-0.69812303 
1024 1:0.49212598 2:-0.45736434 3:-0.6485924 
10.52109398574627 1:0.45866142 2:0.51937984 3:-0.63785516 
1024 1:0.51181102 2:-0.64341085 3:-0.63944657 
1024 1:0.49212598 2:-0.45736434 3:-0.6485924 
356.955230103377 1:0.45866142 2:0.51937984 3:-0.63785516 
1024 1:0.41732283 2:-0.65891473 3:-0.59126297 
1024 1:0.59448819 2:-0.11627907 3:-0.57689922 
1024 1:0.61220472 2:-0.27131783 3:-0.59297172 
1024 1:0.47047244 2:-0.51937984 3:-0.60615113 
1024 1:0.43503937 2:0.33333333 3:-0.58297388 
1024 1:0.56102362 2:0.10077519 3:-0.58333688 
318.5861917811302 1:0.51377953 2:0.51937984 3:-0.57913348 
445.3425309732959 1:0.39566929 2:-0.58139535 3:-0.56011676 
854.1469184248089 1:0.39566929 2:-0.58139535 3:-0.56011676 
20.97588806786365 1:0.42125984 2:0.42635659 3:-0.53621831 
1024 1:0.54724409 2:0.47286822 3:-0.53638181 
1024 1:0.55511811 2:0.28682171 3:-0.53954998 
454.4724759134212 1:0.42125984 2:0.42635659 3:-0.53621831 
1024 1:0.46259843 2:-0.50387597 3:-0.54638031 
1024 1:0.56889764 2:0.34883721 3:-0.50252565 
1024 1:0.40551181 2:0.054263566 3:-0.49120916 
40.13052641529271 1:0.43307087 2:-0.6744186 3:-0.51031101 
1024 1:0.55314961 2:-0.007751938 3:-0.490488 
1024 1:0.56496063 2:0.023255814 3:-0.45597687 
1024 1:0.41141732 2:-0.36434109 3:-0.46926439 
1024 1:0.52952756 2:-0.17829457 3:-0.4648119 
1024 1:0.48228346 2:-0.56589147 3:-0.46451659 
1024 1:0.49409449 2:-0.58139535 3:-0.42512218 
1024 1:0.45472441 2:0.17829457 3:-0.41566124 
169.0489055204239 1:0.52362205 2:0.41085271 3:-0.437237 
1024 1:0.42913386 2:-0.34883721 3:-0.42932936 
1024 1:0.53543307 2:0.054263566 3:-0.42310373 
1024 1:0.40354331 2:-0.28682171 3:-0.38278465 
403.1913587924973 1:0.41732283 2:-0.10077519 3:-0.38366319 
1024 1:0.42322835 2:-0.62790698 3:-0.39679614 
932.8650713927204 1:0.41732283 2:-0.10077519 3:-0.38366319 
1024 1:0.42322835 2:-0.62790698 3:-0.39679614 
1024 1:0.45866142 2:0.085271318 3:-0.38787534 
1024 1:0.45866142 2:0.085271318 3:-0.38787534 
1024 1:0.52755906 2:-0.20930233 3:-0.39199906 
1024 1:0.44685039 2:-0.10077519 3:-0.35469654 
518.6682095256116 1:0.44488189 2:-0.51937984 3:-0.36069742 
818.2514460403153 1:0.49606299 2:0.33333333 3:-0.34822858 
1024 1:0.43700787 2:-0.65891473 3:-0.35944192 
554.0285923791528 1:0.43700787 2:-0.65891473 3:-0.35944192 
965.1281521768321 1:0.43700787 2:-0.65891473 3:-0.35944192 
1024 1:0.43700787 2:-0.65891473 3:-0.35944192 
1024 1:0.45669291 2:-0.10077519 3:-0.35267249 
1024 1:0.44685039 2:-0.10077519 3:-0.35469654 
1024 1:0.52952756 2:0.24031008 3:-0.34757076 
1024 1:0.45866142 2:-0.28682171 3:-0.33467811 
1024 1:0.47637795 2:-0.069767442 3:-0.31764605 
1024 1:0.47047244 2:-0.50387597 3:-0.328149 
1024 1:0.53149606 2:0.054263566 3:-0.34300913 
634.5240194445965 1:0.43700787 2:-0.31782946 3:-0.29590854 
81.19020186796334 1:0.43700787 2:-0.31782946 3:-0.29590854 
1024 1:0.47834646 2:-0.2248062 3:-0.28298641 
1024 1:0.47834646 2:-0.2248062 3:-0.28298641 
1024 1:0.5 2:-0.20930233 3:-0.29773556 
1024 1:0.46850394 2:-0.30232558 3:-0.30225669 
196.6623482748778 1:0.42716535 2:-0.30232558 3:-0.27166492 
216.8634250995851 1:0.46850394 2:-0.27131783 3:-0.25589135 
202.0275972237137 1:0.42716535 2:-0.30232558 3:-0.27166492 
1024 1:0.51574803 2:-0.1627907 3:-0.2899627 
809.8144284585409 1:0.46850394 2:-0.27131783 3:-0.25589135 
1024 1:0.50393701 2:-0.30232558 3:-0.26660189 
0.1087481593858677 1:-0.56889764 2:0.1627907 3:-0.46011215 
0.4826191750998686 1:-0.71653543 2:0.50387597 3:-0.85923837 
0.09424580450813555 1:-0.53346457 2:0.30232558 3:-0.58315436 
0.0199212369021279 1:-0.55314961 2:0.25581395 3:-0.56060111 
0.263854095328498 1:-0.54724409 2:0.25581395 3:-0.56594318 
0.1101221858406202 1:-0.3503937 2:-0.19379845 3:-0.19344243 
0.1026816283393606 1:-0.3484252 2:-0.24031008 3:-0.18174116 
0.6504979532520652 1:-0.37795276 2:-0.33333333 3:-0.17252932 
0.1092814371250617 1:-0.37795276 2:-0.33333333 3:-0.17252932 
1024 1:0.54724409 2:-0.007751938 3:-0.87336026 
0.333154211656207 1:0.33661417 2:0.41085271 3:-0.86655967 
9.537789713472604 1:0.33661417 2:0.41085271 3:-0.86655967 
6.606177422030215 1:0.33661417 2:0.41085271 3:-0.86655967 
551.4073679973418 1:0.37401575 2:-0.007751938 3:-0.87535498 
91.36143910009757 1:0.30314961 2:-0.17829457 3:-0.87964104 
447.7616569708622 1:0.33661417 2:0.41085271 3:-0.86655967 
1024 1:0.3011811 2:0.19379845 3:-0.87507662 
1024 1:0.41141732 2:-0.30232558 3:-0.82384685 
1024 1:0.46062992 2:0.03875969 3:-0.83844466 
1024 1:0.51377953 2:-0.1627907 3:-0.83878202 
1024 1:0.32283465 2:0.41085271 3:-0.82036506 
830.0069243124696 1:0.34448819 2:-0.069767442 3:-0.82944835 
1024 1:0.48818898 2:-0.1627907 3:-0.8277934 
1024 1:0.53346457 2:-0.17829457 3:-0.83252285 
1024 1:0.48818898 2:-0.1627907 3:-0.8277934 
395.6474263401456 1:0.35629921 2:-0.50387597 3:-0.79410145 
1024 1:0.44488189 2:-0.1627907 3:-0.79310089 
1024 1:0.53937008 2:-0.2248062 3:-0.79728645 
1024 1:0.49606299 2:-0.25581395 3:-0.7519355 
1024 1:0.49606299 2:-0.25581395 3:-0.7519355 
1024 1:0.48031496 2:-0.27131783 3:-0.76191869 
148.3039160097054 1:0.31692913 2:0.20930233 3:-0.76881248 
206.8161191587166 1:0.34251969 2:0.44186047 3:-0.74404159 
1024 1:0.4015748 2:-0.27131783 3:-0.71507782 
1024 1:0.49409449 2:-0.24031008 3:-0.71829741 
1024 1:0.50590551 2:-0.20930233 3:-0.72192094 
899.5527200200693 1:0.45669291 2:-0.47286822 3:-0.70464333 
1024 1:0.45669291 2:-0.47286822 3:-0.70464333 
750.7807231700502 1:0.43307087 2:-0.39534884 3:-0.69145197 
1024 1:0.49409449 2:-0.41085271 3:-0.68669877 
470.1647150676578 1:0.32874016 2:-0.25581395 3:-0.6520497 
1024 1:0.48425197 2:-0.19379845 3:-0.66150338 
1024 1:0.48818898 2:-0.50387597 3:-0.67725587 
1024 1:0.44685039 2:-0.17829457 3:-0.66006259 
1024 1:0.4488189 2:-0.34883721 3:-0.63102847 
1024 1:0.47834646 2:-0.50387597 3:-0.64558382 
1024 1:0.44094488 2:-0.31782946 3:-0.62923059 
1024 1:0.42913386 2:-0.14728682 3:-0.60593631 
1024 1:0.46653543 2:-0.37984496 3:-0.60513472 
1024 1:0.46259843 2:-0.37984496 3:-0.57305045 
1024 1:0.43503937 2:-0.14728682 3:-0.57699947 
549.5028006423904 1:0.46850394 2:-0.50387597 3:-0.58832976 
1024 1:0.4015748 2:-0.17829457 3:-0.55168553 
1024 1:0.41338583 2:-0.13178295 3:-0.54550933 
1024 1:0.51181102 2:-0.5503876 3:-0.52044773 
1024 1:0.46850394 2:-0.48837209 3:-0.53579484 
1024 1:0.46456693 2:-0.6744186 3:-0.538591 
1024 1:0.51181102 2:-0.5503876 3:-0.52044773 
1024 1:0.45866142 2:-0.65891473 3:-0.51320252 
1024 1:0.45866142 2:-0.65891473 3:-0.51320252 
1024 1:0.49015748 2:-0.6124031 3:-0.46910697 
1024 1:0.52559055 2:-0.53488372 3:-0.47350754 
1024 1:0.57086614 2:0.56589147 3:-0.74695678 
1024 1:0.54330709 2:0.37984496 3:-0.67062445 
1024 1:0.54330709 2:0.37984496 3:-0.67062445 
1024 1:0.47834646 2:0.42635659 3:-0.58765813 
22.65103614146914 1:0.12401575 2:0.25581395 3:-0.58556928 
383.9631946161907 1:0.36220472 2:0.47286822 3:-0.56812158 
33.56028469507067 1:0.12401575 2:0.25581395 3:-0.58556928 
155.7217906267133 1:0.47834646 2:0.42635659 3:-0.58765813 
952.7493467061269 1:0.47834646 2:0.42635659 3:-0.58765813 
312.9657424954503 1:0.20669291 2:0.1627907 3:-0.51705972 
1024 1:0.47047244 2:0.31782946 3:-0.52341059 
616.8114585256246 1:0.3976378 2:0.30232558 3:-0.45312822 
1024 1:0.49606299 2:0.2248062 3:-0.46289565 
678.428244262259 1:0.3976378 2:0.30232558 3:-0.45312822 
0.3633091566901044 1:0.19291339 2:0.19379845 3:-0.39390451 
1.493889502156301 1:0.19291339 2:0.19379845 3:-0.39390451 
43.29021757779947 1:0.25 2:-0.51937984 3:-0.40765919 
18.88606079034167 1:0.19291339 2:0.19379845 3:-0.39390451 
533.4687387381874 1:0.40748031 2:0.19379845 3:-0.34621504 
22.4555558977923 1:0.40748031 2:0.19379845 3:-0.34621504 
101.6457663109435 1:0.40748031 2:0.19379845 3:-0.34621504 
0.6306007341966645 1:0.40748031 2:0.19379845 3:-0.34621504 
1024 1:0.40748031 2:0.19379845 3:-0.34621504 
1024 1:0.4015748 2:0.17829457 3:-0.32604029 
0.319950540436693 1:0.21259843 2:-0.33333333 3:-0.29246746 
16.39572281859502 1:0.21259843 2:-0.33333333 3:-0.29246746 
395.3160010499132 1:0.37401575 2:0.19379845 3:-0.27454214 
365.4675632789268 1:0.34645669 2:0.085271318 3:-0.2374215 
12.2016251169405 1:0.34645669 2:0.085271318 3:-0.2374215 
733.0255413556339 1:0.34645669 2:0.085271318 3:-0.2374215 
2.923985851129348 1:0.30511811 2:-0.14728682 3:-0.073846052 
0.2665763859144962 1:0.30511811 2:-0.14728682 3:-0.073846052 
3.056518990537718 1:0.30511811 2:-0.14728682 3:-0.073846052 
27.35035536688759 1:0.30511811 2:-0.14728682 3:-0.073846052 
0.116686413320669 1:-0.45472441 2:-0.007751938 3:-0.71227477 
8.255140015127793 1:0.28346457 2:0.45736434 3:-0.82687847 
0.03939132926291665 1:0.28346457 2:0.45736434 3:-0.82687847 
85.17041757175481 1:0.28346457 2:0.45736434 3:-0.82687847 
5.68965313363783 1:-0.0098425197 2:-0.79844961 3:-0.33376106 
-219.5968515863298 1:0.51187462 2:-0.49579832 3:-0.52969709 
-1024 1:0.48053044 2:-0.52941176 3:-0.51492058 
-1024 1:0.40216998 2:0.0084033613 3:-0.64889739 
-947.157082927646 1:0.53839662 2:0.54621849 3:-0.76237684 
-1024 1:0.29969861 2:0.39495798 3:-0.7942942 
-1024 1:0.2623267 2:0.21008403 3:-0.57962356 
-1024 1:0.46726944 2:-0.15966387 3:-0.30483012 
-957.2369816117247 1:0.36600362 2:-0.36134454 3:-0.7213457 
-0.07823114358821656 1:0.52031344 2:-0.4789916 3:0.50929731 
-70.55961446815208 1:0.36479807 2:-0.025210084 3:-0.92284744 
-1024 1:0.42266426 2:-0.56302521 3:-0.64332252 
-9.825917219383001 1:0.59505726 2:0.36134454 3:-0.20324173 
-817.9772511588699 1:0.39975889 2:-0.1092437 3:-0.69936218 
-1024 1:0.47329717 2:0.51260504 3:-0.70048335 
-1024 1:0.40819771 2:-0.058823529 3:-0.44142956 
-1024 1:0.37323689 2:0.44537815 3:-0.80658336 
-1024 1:0.54442435 2:0.025210084 3:-0.4590109 
-1024 1:0.42145871 2:0.15966387 3:-0.41261948 
-1.251281932682364 1:0.25871007 2:0.1092437 3:-0.2435384 
-1024 1:0.46244726 2:0.27731092 3:-0.32490311 
-1024 1:0.43110307 2:0.46218487 3:-0.57693575 
-34.54857461749722 1:0.40096444 2:-0.69747899 3:-0.39121401 
-1024 1:0.39975889 2:-0.59663866 3:-0.38244613 
-898.4859629022037 1:0.39614225 2:0.31092437 3:-0.86223507 
-414.4667655117262 1:0.58300181 2:-0.17647059 3:-0.58803441 
-274.2841558184757 1:0.49138035 2:0.57983193 3:-0.86181279 
-236.3504944372454 1:0.4901748 2:-0.71428571 3:-0.49561434 
-290.1485703141298 1:0.47570826 2:-0.34453782 3:-0.33775514 
-1000.153766760144 1:0.54683544 2:0.0084033613 3:-0.85410252 
-366.9908736670446 1:0.56853526 2:-0.14285714 3:-0.56138913 
-91.11333108779564 1:0.46606389 2:0.075630252 3:-0.61404441 
-1024 1:0.45641953 2:-0.56302521 3:-0.61869525 
-527.7535224848421 1:0.66377336 2:-0.025210084 3:-0.78178002 
-36.36780327577882 1:0.73731163 2:-0.025210084 3:-0.67111942 
-1024 1:0.25509343 2:0.39495798 3:-0.69617902 
-3.675406619287782 1:0.44556962 2:-0.6302521 3:-0.89191538 
-4.941145055453711 1:0.70958409 2:-0.34453782 3:-0.5279631 
-1024 1:0.25509343 2:0.39495798 3:-0.69617902 
-1024 1:0.48294153 2:-0.4789916 3:-0.67157244 
-631.9385536403241 1:0.41784207 2:-0.57983193 3:-0.65237218 
-163.9330775317007 1:0.56974081 2:0.42857143 3:-0.76427039 
-334.1194985596906 1:0.56491863 2:-0.64705882 3:-0.62411304 
-0.0316530512312837 1:0.58420735 2:-0.39495798 3:0.48651637 
-1024 1:0.37323689 2:0.44537815 3:-0.80658336 
-1024 1:0.55527426 2:0.44537815 3:-0.7397531 
-1024 1:0.35997589 2:-0.29411765 3:-0.51829996 
-107.731559599609 1:0.60831826 2:0.39495798 3:-0.80251518 
-1024 1:0.43954189 2:0.1092437 3:-0.49466716 
-1024 1:0.46124171 2:-0.17647059 3:-0.64744254 
-6.934416597881476 1:0.57094635 2:0.025210084 3:-0.27956516 
-818.4040100625497 1:0.41301989 2:-0.34453782 3:-0.40217335 
-458.8615831429346 1:0.50102471 2:-0.54621849 3:-0.34995431 
-115.6023882313674 1:0.50102471 2:-0.54621849 3:-0.34995431 
-1024 1:0.40819771 2:-0.058823529 3:-0.44142956 
-1024 1:0.47570826 2:-0.22689076 3:-0.84785685 
-758.6110761128475 1:0.45641953 2:-0.14285714 3:-0.48849091 
-1024 1:0.40578662 2:0.14285714 3:-0.7829777 
-587.904299267781 1:0.40096444 2:-0.69747899 3:-0.39121401 
-8.913235695090632 1:0.44556962 2:-0.6302521 3:-0.89191538 
-0.1010515142672427 1:0.65895118 2:-1 3:0.39435784 
-1024 1:0.30813743 2:0.34453782 3:-0.40558913 
-1024 1:0.43110307 2:-0.4789916 3:-0.52422729 
-1024 1:0.46003617 2:0.32773109 3:-0.50016322 
-343.640614959515 1:0.55647981 2:0.24369748 3:-0.56307495 
-1024 1:0.3021097 2:0.42857143 3:-0.79731053 
-1024 1:0.48535262 2:-0.41176471 3:-0.67137355 
-597.4210999904532 1:0.52513562 2:-0.27731092 3:-0.29789221 
-1024 1:0.45641953 2:-0.56302521 3:-0.61869525 
-1024 1:0.25509343 2:0.39495798 3:-0.69617902 
-1024 1:0.45641953 2:0.19327731 3:-0.41659194 
-12.2593335585982 1:0.57817963 2:0.34453782 3:-0.33999456 
-896.3259616271891 1:0.53598553 2:-0.2605042 3:-0.73127447 
-1024 1:0.36600362 2:-0.36134454 3:-0.7213457 
-1024 1:0.39614225 2:-0.57983193 3:-0.42122984 
-0.06603468706398087 1:0.53960217 2:-0.81512605 3:0.50853701 
-1024 1:0.47450271 2:-0.34453782 3:-0.29814417 
-586.6047922483294 1:0.68306209 2:-0.37815126 3:-0.75005735 
-152.7535181791245 1:0.53960217 2:-0.49579832 3:-0.73763468 
-1024 1:0.53477999 2:0.46218487 3:-0.55133836 
-128.3427533768372 1:0.61916817 2:-0.15966387 3:-0.6176099 
-36.8693042093835 1:0.42748644 2:-0.76470588 3:-0.54697472 
-1024 1:0.48535262 2:-0.29411765 3:-0.78095541 
-40.28007724601652 1:0.70958409 2:0.66386555 3:-0.83395015 
-1024 1:0.46726944 2:-0.21008403 3:-0.44056256 
-915.5815892976868 1:0.42507535 2:-0.68067227 3:-0.33025884 
-56.90273273781933 1:0.45883062 2:-0.4789916 3:-0.23349467 
-1024 1:0.30813743 2:0.34453782 3:-0.40558913 
-657.1021128553213 1:0.57576854 2:-0.025210084 3:-0.38632782 
-0.9453768725793447 1:0.44556962 2:-0.6302521 3:-0.89191538 
-1024 1:0.4925859 2:-0.4789916 3:-0.53504979 
-1024 1:0.38529234 2:0.0084033613 3:-0.51581956 
-1024 1:0.47088608 2:-0.54621849 3:-0.68891436 
-454.9286117259012 1:0.49861362 2:0.058823529 3:-0.83229518 
-824.0187593379443 1:0.47811935 2:-0.39495798 3:-0.55661713 
-779.0999064783528 1:0.4901748 2:-0.34453782 3:-0.77866677 
-1024 1:0.47209162 2:-0.24369748 3:-0.82919683 
-1024 1:0.50946353 2:-0.46218487 3:-0.70632158 
-1024 1:0.43833635 2:-0.31092437 3:-0.6444447 
-1024 1:0.39011453 2:-0.17647059 3:-0.83040787 
-1024 1:0.41543098 2:-0.058823529 3:-0.35135093 
-602.9440426828717 1:0.52754671 2:0.1092437 3:-0.34971253 
-31.14117953155026 1:0.54442435 2:-0.22689076 3:-0.80142536 
-645.602056188666 1:0.52995781 2:-0.49579832 3:-0.5810952 
-1024 1:0.52634117 2:0.34453782 3:-0.68823013 
-1024 1:0.67100663 2:-0.21008403 3:-0.64271481 
-1024 1:0.41301989 2:-0.34453782 3:-0.40217335 
-1024 1:0.32622061 2:0.37815126 3:-0.47459128 
-504.7630536717543 1:0.54201326 2:-0.12605042 3:-0.82948342 
-418.5589060508703 1:0.52393008 2:0.042016807 3:-0.4524169 
-726.5462725804263 1:0.44556962 2:-0.68067227 3:-0.58389865 
-1024 1:0.4769138 2:-0.22689076 3:-0.73385218 
-1024 1:0.49620253 2:-0.15966387 3:-0.40114551 
-958.7906400130908 1:0.6384569 2:-0.19327731 3:-0.69268079 
-412.9040532984984 1:0.53598553 2:-0.1092437 3:-0.86021378 
-1024 1:0.45883062 2:-0.6302521 3:-0.49907157 
-43.62817749788993 1:0.26955998 2:0.12605042 3:-0.09862379 
-581.7311769594833 1:0.56491863 2:0.36134454 3:-0.40114214 
-1024 1:0.47329717 2:-0.54621849 3:-0.52766987 
-1024 1:0.45159735 2:-0.075630252 3:-0.35855835 
-0.7222778195865087 1:0.55647981 2:0.058823529 3:-0.56316696 
-1024 1:0.56974081 2:0.025210084 3:-0.49941845 
-1024 1:0.41784207 2:-0.57983193 3:-0.65237218 
-176.9128016666279 1:0.26955998 2:0.17647059 3:-0.88140869 
-0.1332589654049 1:0.59144063 2:-1 3:0.99690845 
-956.9924126177798 1:0.25147679 2:0.2605042 3:-0.4987893 
-1024 1:0.51549126 2:-0.21008403 3:-0.25890891 
-438.9169221919898 1:0.48896926 2:-0.59663866 3:-0.44751072 
-751.4572016138892 1:0.62760699 2:-0.19327731 3:-0.60126794 
-1024 1:0.46485835 2:-0.22689076 3:-0.35846112 
-57.00789881203507 1:0.23942134 2:0.27731092 3:-0.42633946 
-1.101046763593254 1:0.49499699 2:0.058823529 3:-0.76715693 
-625.1733416272943 1:0.5588909 2:0.31092437 3:-0.77763501 
-1024 1:0.48776371 2:-0.59663866 3:-0.36992273 
-844.8038847255638 1:0.48173599 2:-0.19327731 3:-0.61677382 
-1024 1:0.25268234 2:0.22689076 3:-0.66880223 
-1024 1:0.37805907 2:-0.058823529 3:-0.79210396 
-72.48936453387792 1:0.64327908 2:-0.075630252 3:-0.71309827 
-1024 1:0.48294153 2:-0.61344538 3:-0.43567997 
-926.5201499933407 1:0.3708258 2:-0.31092437 3:-0.53417385 
-773.1343629691635 1:0.4925859 2:0.34453782 3:-0.52051574 
-195.2196720897166 1:0.70837854 2:-0.15966387 3:-0.73408525 
-1006.926871717453 1:0.44556962 2:-0.68067227 3:-0.58389865 
-122.7364711010093 1:0.5058469 2:-0.54621849 3:-0.69953061 
-160.6394248970925 1:0.58902954 2:0.075630252 3:-0.72746305 
-1024 1:0.42266426 2:-0.17647059 3:-0.59624064 
-1024 1:0.49379144 2:-0.21008403 3:-0.73583625 
-2.48657222863719 1:0.6782399 2:-0.2605042 3:-0.64263125 
-421.6956988473924 1:0.25147679 2:0.2605042 3:-0.4987893 
-301.8365548790161 1:0.2888487 2:0.32773109 3:-0.26771472 
-75.30799935951156 1:0.48173599 2:-0.54621849 3:-0.49262845 
-1024 1:0.43833635 2:-0.31092437 3:-0.6444447 
-398.7334306684535 1:0.59987945 2:0.19327731 3:-0.47247483 
-996.307617033768 1:0.35997589 2:-0.29411765 3:-0.51829996 
-1024 1:0.41301989 2:-0.34453782 3:-0.40217335 
-1024 1:0.44918626 2:-0.41176471 3:-0.62301634 
-237.7858143514401 1:0.45883062 2:-0.12605042 3:-0.54324654 
-953.4533414193195 1:0.46726944 2:-0.34453782 3:-0.64011775 
-1024 1:0.40458107 2:-0.22689076 3:-0.53736857 
-110.3130999023924 1:0.52393008 2:-0.14285714 3:-0.32463775 
-470.9805936307379 1:0.41784207 2:0.058823529 3:-0.2560771 
-13.23736603102206 1:0.4106088 2:0.39495798 3:-0.86846597 
-1024 1:0.2092827 2:0.21008403 3:-0.76822399 
-115.772009436284 1:0.70235081 2:0.34453782 3:-0.74987099 
-728.5727188410385 1:0.26955998 2:0.17647059 3:-0.88140869 
-15.58289019643384 1:0.53357444 2:-0.64705882 3:-0.58522629 
-47.31233162925317 1:0.56853526 2:0.32773109 3:-0.82908874 
-1024 1:0.41422544 2:-0.29411765 3:-0.75076784 
-1024 1:0.45641953 2:0.19327731 3:-0.41659194 
-801.6374290239405 1:0.48896926 2:-0.59663866 3:-0.44751072 
-1024 1:0.48535262 2:-0.61344538 3:-0.46890612 
-348.0657138115677 1:0.47450271 2:-0.34453782 3:-0.21303572 
-1024 1:0.3443038 2:0.44537815 3:-0.49252227 
-880.3026257734874 1:0.47811935 2:0.075630252 3:-0.35180706 
-513.8135437695125 1:0.53719108 2:0.29411765 3:-0.38527218 
-0.005880096733668154 1:0.53598553 2:-1 3:0.50622674 
-1024 1:0.51549126 2:-0.29411765 3:-0.312054 
-1024 1:0.47570826 2:-0.4789916 3:-0.77793085 
-1024 1:0.69029536 2:-0.1092437 3:-0.68848952 
-80.16244016838664 1:0.64327908 2:-0.075630252 3:-0.71309827 
-1024 1:0.25750452 2:0.32773109 3:-0.37106708 
-76.74979859890455 1:0.47450271 2:-0.34453782 3:-0.21303572 
-41.72184202360903 1:0.66980108 2:0.025210084 3:-0.88730683 
-30.3584560185651 1:0.37926462 2:0.29411765 3:-0.20675052 
-321.0623644771891 1:0.38770344 2:-0.2605042 3:-0.48449516 
-994.7519663201521 1:0.41301989 2:-0.34453782 3:-0.40217335 
-226.7815644305906 1:0.36479807 2:-0.025210084 3:-0.92284744 
-269.4952667487738 1:0.46847498 2:-0.058823529 3:-0.36856094 
-926.7107424951819 1:0.52513562 2:-0.42857143 3:-0.66559573 
-486.7274750501129 1:0.53839662 2:-0.17647059 3:-0.3957082 
-907.8582132877856 1:0.59264617 2:-0.025210084 3:-0.86063639 
-35.9539908536842 1:0.60831826 2:0.39495798 3:-0.80251518 
-0.07587839128388527 1:0.58059072 2:-1 3:0.70166495 
-685.9501715204329 1:0.56612417 2:0.44537815 3:-0.5514823 
-1024 1:0.45280289 2:-0.22689076 3:-0.27719941 
-146.6061815451993 1:0.42266426 2:-0.59663866 3:-0.75676172 
-141.7947113405495 1:0.53357444 2:-0.44537815 3:-0.73922079 
-1024 1:0.24424352 2:0.15966387 3:-0.30159828 
-1024 1:0.51669681 2:-0.51260504 3:-0.66408244 
-237.4347444115084 1:0.5588909 2:0.31092437 3:-0.77763501 
-897.5429127133818 1:0.61555154 2:0.058823529 3:-0.82761254 
-127.3034034532156 1:0.59385172 2:0.075630252 3:-0.44210515 
-72.03883629823915 1:0.42748644 2:-0.76470588 3:-0.54697472 
-1024 1:0.46244726 2:0.092436975 3:-0.62444858 
-99.47006915440652 1:0.54201326 2:-0.12605042 3:-0.82948342 
-1024 1:0.45883062 2:-0.2605042 3:-0.71094317 
-1024 1:0.51669681 2:0.36134454 3:-0.55841922 
-1024 1:0.54683544 2:0.0084033613 3:-0.85410252 
-489.715965297548 1:0.56974081 2:0.092436975 3:-0.64696509 
-1024 1:0.29969861 2:0.39495798 3:-0.7942942 
-278.1120015096002 1:0.42266426 2:0.31092437 3:-0.71612014 
-1024 1:0.49620253 2:-0.42857143 3:-0.5966879 
-264.8881067840016 1:0.53477999 2:0.14285714 3:-0.42653273 
-263.46049418476 1:0.51549126 2:-0.21008403 3:-0.25890891 
-588.1619703218477 1:0.53477999 2:0.54621849 3:-0.67638629 
-681.41604246958 1:0.54442435 2:-0.22689076 3:-0.80142536 
-562.8795118753191 1:0.51187462 2:-0.49579832 3:-0.52969709 
-1024 1:0.47450271 2:-0.025210084 3:-0.3559198 
-55.09586118512151 1:0.70837854 2:-0.15966387 3:-0.73408525 
-478.3460867414349 1:0.44556962 2:-0.042016807 3:-0.86832975 
-994.416978662577 1:0.45280289 2:0.17647059 3:-0.33649793 
-1024 1:0.41181435 2:-0.12605042 3:-0.56669933 
-1024 1:0.40940325 2:-0.4789916 3:-0.7416745 
-1024 1:0.3973478 2:0.075630252 3:-0.78000226 
-43.93992280900105 1:0.61916817 2:-0.15966387 3:-0.6176099 
-1024 1:0.40940325 2:-0.4789916 3:-0.7416745 
-165.8032361192182 1:0.46847498 2:-0.058823529 3:-0.36856094 
-18.35240479356163 1:0.52393008 2:-0.14285714 3:-0.32463775 
-86.60442716144597 1:0.26955998 2:0.12605042 3:-0.09862379 
-568.7013257105224 1:0.46606389 2:0.075630252 3:-0.61404441 
-1024 1:0.45883062 2:-0.6302521 3:-0.49907157 
-119.3051576407816 1:0.45883062 2:-0.4789916 3:-0.23349467 
-1024 1:0.51308017 2:-0.15966387 3:-0.75542224 
-1024 1:0.35997589 2:0.14285714 3:-0.26950926 
-0.5567103937822354 1:0.44556962 2:-0.73109244 3:-0.85506144 
-122.5938258688261 1:0.55045208 2:-0.59663866 3:-0.59343764 
-49.01285680074152 1:0.52393008 2:-0.14285714 3:-0.32463775 
-166.0996561190327 1:0.36118143 2:-0.36134454 3:-0.84880754 
-1024 1:0.46726944 2:-0.15966387 3:-0.30483012 
-1024 1:0.42628089 2:-0.66386555 3:-0.3481901 
-1024 1:0.45280289 2:-0.22689076 3:-0.27719941 
-426.8231704864028 1:0.66738999 2:-0.025210084 3:-0.64672821 
-80.40177705017982 1:0.42748644 2:-0.73109244 3:-0.76539005 
-157.006311663101 1:0.4636528 2:-0.14285714 3:-0.2843237 
-402.1876410426443 1:0.58420735 2:0.29411765 3:-0.65747909 
-1024 1:0.47932489 2:-0.6302521 3:-0.41774285 
-1024 1:0.41422544 2:-0.27731092 3:-0.29748737 
-925.0495317603924 1:0.42266426 2:0.31092437 3:-0.71612014 
-1024 1:0.39855335 2:0.14285714 3:-0.33879997 
-1024 1:0.46003617 2:0.32773109 3:-0.50016322 
-648.1688510316244 1:0.60470163 2:0.36134454 3:-0.6292494 
-11.69646200358126 1:0.62157926 2:0.058823529 3:-0.8925301 
-739.9876369059045 1:0.49379144 2:-0.12605042 3:-0.81113152 
-1024 1:0.54442435 2:-0.22689076 3:-0.80142536 
-598.0327400557288 1:0.43471971 2:0.29411765 3:-0.65458221 
-36.43489125186805 1:0.6782399 2:-0.52941176 3:-0.79137077 
-1024 1:0.45400844 2:0.37815126 3:-0.60932579 
